-0.0215332,-0.0312043,0.0285434,-0.00723133,-0.010785,0.0336507,-0.00303978,-0.00137501,-0.0276573,0.00311993,-0.0268675,-0.00816198,0.00534274,0.0329012,0.026979,-0.00171638,-0.0236311,0.00989149,-0.00753708,-0.0134158
-0.00261729,0.0194957,-0.0320966,-0.0289726,0.00633907,0.017656,0.0181564,0.00323443,0.025984,0.0277446,-0.0116272,-0.0265674,-0.0333515,-0.0214319,-0.0305917,-0.0286453,-0.000339939,-0.0284966,0.0153589,0.000120491
-0.0316445,0.0269889,0.000395906,-0.0321504,0.0281743,-0.0343816,-0.0236181,-0.0255121,0.0316471,0.0352733,0.00410968,0.0250325,0.00160597,-0.0299699,-0.0149739,0.0193637,-0.0278792,0.0117531,-0.0262521,-0.00220363
0.0067222,-0.0177056,0.00393918,0.0283707,0.00800389,-0.00703141,-0.011987,0.0297573,-0.00808075,0.0187678,0.0145764,0.0305638,-0.0170542,-0.000897832,0.00485632,0.0335805,-0.0154802,-0.00387779,-0.0334437,0.0190814
-0.0177945,-0.00306554,0.0074082,-0.00413156,0.0347768,-0.0245753,-0.0283331,-0.0114726,0.00423072,-0.00130803,-0.00155236,-0.0283453,-0.0227841,0.0214941,-0.0254372,0.0309677,0.0104836,-0.0113242,0.0262806,-0.0356935
0.0145576,-0.0130516,0.0210199,-0.00812335,-0.0151663,0.0142242,0.00448079,0.00637971,-0.0180287,-0.00616152,0.0322974,0.0135069,-0.0313956,0.0144947,-0.0114706,0.00283956,-0.0284718,0.00571691,-0.0195078,0.0196401
-0.00438978,-0.0125929,0.0159277,0.0225143,-0.00715069,-0.0298543,0.0333125,0.0116359,-0.0322179,0.00747256,0.0256229,0.0280008,0.00876367,-0.0247177,0.00293531,0.012224,-0.0254322,0.000488785,0.0250274,-0.0271232
0.023036,0.0346094,0.0322371,-0.00441086,-0.0180589,0.00609687,-0.00333728,-0.00473104,0.0106577,-0.0205914,0.0070358,-0.033744,0.00540411,0.0245365,0.0240321,-0.00947057,-0.025597,-0.00941114,-0.00853753,-0.00683857
-0.0353493,-0.0235021,0.000321985,0.0111558,0.0133745,-0.0121372,0.0116603,0.0336229,0.0118977,0.0187396,-0.0322316,0.0135778,0.0101268,-0.0324722,-0.0169574,-0.00593151,0.00545073,0.0145997,-0.0221898,-0.00580733
-0.00942248,0.0274382,0.00626838,0.0317623,-0.020177,-0.0140606,0.00695733,-0.00235401,-0.0148533,0.0230169,-0.0190733,0.0151424,0.0303949,-0.0111019,0.0157421,0.0225599,0.00761781,-0.0295116,-0.0116237,0.0120376
-0.0130087,0.0338541,-0.0107832,0.0213079,0.0171559,0.0157459,-0.0216856,0.00177087,0.032279,0.0327918,-0.0151965,0.00644875,-0.00738958,0.0168837,-0.0167412,0.0314507,-0.0236603,0.0250711,-0.0322724,-0.0169869
-0.0236027,-0.021539,-0.0138877,0.0352198,-0.00998303,-0.0213028,0.0147223,0.0326207,-0.0297804,0.023191,-0.00356743,-0.0209265,0.000721211,0.00793521,-0.0240063,-0.0169709,-0.00143748,0.0115571,-0.0344835,-0.00262364
0.0154455,-0.0275954,-0.0257453,0.0344382,-0.0254989,-0.00295939,-0.0350288,0.0274619,0.00783884,-0.0333289,-0.0122476,-0.0273649,-0.0101748,0.0217163,0.00359898,0.00476014,-0.00111472,-0.0053222,0.0256433,-0.00609205
-0.0119705,0.01225,0.0128064,0.00768181,-8.2424e-05,0.00124788,0.000446077,-0.00128242,-0.0325964,-0.0295665,0.0343239,0.00182419,0.0350769,0.0346503,0.0300117,0.0323255,-0.00419814,0.0245423,0.0124785,0.00844671
-0.0322791,-0.000939442,0.00803798,0.032389,0.0100543,0.00679239,-0.0220423,0.00633342,-0.0255065,-0.0187446,0.00131179,0.00663637,-0.00175213,-0.0267019,0.0277292,-0.00207957,-0.00626623,0.0133975,0.034188,-0.0184877
0.00226809,0.0266044,0.0325886,0.0346193,0.0249313,0.0249119,0.0229923,-0.0148089,0.0142862,-0.000488601,-0.0180194,0.0215574,0.00110009,0.0268317,-0.00669816,-0.0353819,-0.013269,0.00603758,0.0169318,0.033146
0.0117204,-0.0144051,0.0221912,0.0325656,-0.0324773,0.00769403,-0.0111475,0.0344228,0.0188749,-0.0263502,0.00463545,-0.00680162,-0.0139818,0.0323949,0.0043402,0.00430517,3.39838e-05,-0.0276279,-0.0223568,-0.0111182
-0.0248025,-0.0340862,-0.00205442,0.0101014,-0.0131962,0.022191,-0.00427112,0.0330221,0.0260474,0.0161743,0.00228184,0.0181526,0.00422365,0.028836,-0.0285489,-0.0219201,-0.00824084,0.022459,0.0188536,0.0227541
-0.0114284,0.027818,0.00152364,-0.0234454,0.0107862,0.028903,0.0150751,-0.0220286,0.0308541,-0.00562367,-0.000859916,-0.0166006,-0.0199109,0.0251111,-0.0282065,-0.0294137,0.0188651,0.00643133,0.0108152,0.0290502
0.00306234,0.00217533,0.000655848,0.0230124,0.0176022,-0.0172686,0.00902702,0.0264329,-0.00165604,-0.00215665,-0.00181758,0.0298734,0.0161097,0.00132289,-7.51987e-05,0.0210397,0.027685,-0.00269479,-0.0315903,-0.00657765
0.00913971,0.00681408,0.00869987,0.0291841,-0.0319833,-0.000327629,-0.0272512,0.0033713,-0.027314,-0.0143139,0.0153172,0.0317764,0.031572,-0.00666572,0.00935333,-0.0320895,-0.0275749,-0.00560671,0.0207679,0.0093162
0.0305815,-0.00839737,-0.00380503,0.00644411,0.0273139,0.0284054,0.0278841,-0.024407,0.0229969,0.0241449,0.00785385,0.0202363,-0.0304233,0.0164847,-0.00538616,0.0256904,0.0268475,-0.0163967,-0.0308679,0.0224307
0.0205804,0.000738431,0.0220202,-0.0284754,-0.0234858,-0.021717,-0.00815376,-0.00596181,-0.0281376,0.00294025,-0.0325121,0.0177891,-0.000787619,0.00825917,0.0273357,-0.0245469,0.00439632,0.0284615,-0.0253187,-0.0276102
0.0210528,-0.0357083,0.0314404,0.0174621,-0.0356536,0.0218667,-0.0101003,0.0173012,0.030922,-0.0245826,-0.0205481,-0.0337066,0.017721,-0.015415,-0.00440808,0.0140874,-0.00990864,-0.0345559,0.0171018,-0.0267222
-0.0135223,-0.0273307,0.0191171,-0.023078,-0.0100049,-0.0286732,-0.0199572,-0.0148409,0.00660948,-0.0258179,0.0201169,0.0174235,0.0144824,0.0266059,1.931e-05,-0.000662875,0.0232961,-0.0120984,0.028334,-0.012026
-0.0248748,0.0108036,-0.0244644,0.0224407,-0.00248175,0.0263066,-0.00917835,-0.0329606,-0.0243699,-0.0106686,0.017984,-0.0204313,-0.0209773,-0.0214659,0.0145642,0.0127855,-0.000523661,0.0340288,-0.00844531,-0.0108202
0.0315315,0.00738368,-0.017559,-0.00867032,0.000168937,0.01926,-0.0177082,-0.0243918,-0.0151592,0.0166715,-0.0314449,-0.00440196,0.0354019,-0.0319534,-0.000617886,0.00589334,-0.0253738,-0.0270396,-0.0341858,-0.0266115
0.0326483,0.00670695,-0.013525,0.018748,-0.0335481,-0.0078231,0.0320104,-0.0023923,-0.0254998,-0.0189651,-0.0336706,-0.0219456,-0.00816642,-0.00100109,-0.00521118,-0.0211004,-0.0348939,0.00073437,0.033166,-0.0214109
0.00769818,-0.0294743,0.01567,0.0112432,-0.0331115,-0.0210903,-0.0281971,-0.0102471,0.0229818,-0.0074042,-0.0342615,-0.0207395,0.015987,-0.024848,0.0304945,0.0102824,-0.0241598,-0.0107259,0.0170619,-0.0126991
0.0308098,-0.0235486,0.024072,0.0340801,-0.0350569,0.00323935,0.00590493,0.011718,-0.0317105,-0.000205432,0.0167285,0.00650845,0.00121319,-0.0165359,0.013486,-0.025495,0.035256,-0.0354341,-0.0187963,-0.0237428
-0.0116359,0.00237791,-0.00277327,0.0101565,0.0144922,-0.0275871,0.0271484,-0.0266353,-0.00058561,-0.00345588,-0.0155473,-0.0328889,-0.0328339,-0.0250243,0.00941543,-0.0105971,-0.000239108,0.0351127,-0.0288742,0.0279118
0.0218792,-0.0249643,0.00849911,-0.0317024,-0.00818225,-0.0231539,0.00447743,0.0240921,0.0310388,0.03143,-0.0254147,0.00681276,-0.0143845,-0.0276611,0.0217592,-0.0271483,-0.0120767,0.0348798,-0.0261894,0.00959939
-0.00752176,0.0316614,0.0276897,-0.0306068,0.00699644,-0.0148189,-0.0116529,-0.0207619,0.0299877,-0.00817508,-0.030613,0.0156554,0.00357599,-0.00225349,0.0186086,-0.018426,-0.000798275,-0.0282164,0.0322769,0.012092
-0.00756612,-0.00634744,0.0333369,0.0137205,0.00695219,-0.0262544,-0.0321839,-0.0164331,-0.00465276,-0.00389686,0.0242767,0.0278579,0.00448633,-0.0192799,0.0301558,-0.0269476,0.007596,0.0111515,-0.0194121,-0.0100061
-0.00711286,-0.00695557,-0.023276,0.0323825,0.0355359,0.00552895,0.0282047,0.0181351,-0.0127562,0.0144836,0.024876,0.00166228,0.00427557,0.00715534,-0.00909875,-0.029282,0.00815741,-0.00471223,-0.0239188,-0.00703354
0.010398,-0.00711843,-0.000616361,0.000975915,0.00605894,-0.00367995,-0.00427176,0.00347975,-0.00149584,0.0262312,0.00354894,0.0230244,0.0165061,-0.0164736,0.0288857,-0.0231726,-0.026029,-0.00382635,0.0228432,0.0121128
-0.0287228,0.0163152,0.0186425,-0.0301172,0.0275002,0.0236841,0.00801118,0.0256609,0.0130329,0.0256559,0.0208598,0.00565051,0.00880502,0.0309291,-0.0170291,0.0116062,0.0148384,-0.0188458,-0.00320558,-0.0260802
0.0242116,0.0161658,0.028366,0.0191826,-0.00732904,0.0113889,0.0258029,-0.00594326,-0.00925984,-0.0137581,0.0147846,-0.00605126,-0.022675,0.0181519,0.0295508,0.0186562,0.0184395,0.0314908,-0.0346057,0.00155758
-0.00210223,-0.007217,-0.0037201,0.0322676,0.0237288,-0.0328117,0.0291512,0.0331101,-0.0241305,-0.0300199,-0.0244464,0.0226412,-0.0142307,-0.0274769,0.0174533,0.0030798,-0.0162369,0.0241972,-0.0214244,-0.0312675
-0.0272538,0.0347663,-0.0144346,0.0166802,0.00525042,-0.0211561,-0.00955793,0.0151813,0.00423176,0.00901976,0.028578,-0.0310781,-0.0194275,0.0352529,0.00327663,-0.0299861,-0.0174418,0.0421348,0.010221,-0.00130377
-0.0209251,0.0078897,-0.00107992,0.0152307,0.0082082,0.0330426,-0.00295407,0.027417,0.0116012,-0.0264555,0.0314256,-0.0266231,-0.0279945,-0.0286643,0.00957866,0.00550187,-0.009657,-0.0337351,-0.0105152,-0.0221191
0.0206676,0.00803366,0.0211383,0.0234422,0.00540123,0.0187904,0.00845261,-0.0456362,-0.0305622,-0.0333107,-0.0173211,-0.00503849,0.0374733,0.00527095,-0.0311748,-0.00107677,-0.00365879,-5.89151e-05,-0.0179904,-0.0281226
-0.0144192,0.0194022,0.00712423,0.0308353,0.0315994,-0.00875187,0.129642,-0.0936475,-0.0102521,-0.00462392,-0.0553766,-0.00384487,0.0797977,-0.0426464,0.0262757,-0.0109809,0.0198416,-0.0248096,0.0114734,-0.07556
0.0337048,0.0700769,0.0089628,0.0258575,0.018987,-0.0151112,0.0471352,-0.0181599,-0.0312621,-0.0257979,-0.0865757,-0.0213524,0.0383608,0.00250702,0.00591734,-0.0253572,0.0252755,-0.0197034,-0.0209461,-0.00647215
-0.0253996,0.0253406,-0.00491203,0.00137233,-0.0302349,-0.0278755,0.0481137,0.00743954,-0.0366473,-0.029014,-0.069332,0.0295925,0.0495615,0.00104027,0.062726,-0.00458507,0.0267617,-0.00471028,0.0297655,0.0209471
-0.0124345,0.0188782,-0.0234206,0.0155475,0.00532197,0.0297775,-0.0135038,-0.0142004,0.0026381,0.0126051,0.00537263,-0.0314607,-0.00973063,0.00961973,0.0123148,0.0223363,-0.0233253,-0.0177482,0.00992213,-0.0188266
-0.00321149,0.00689871,0.00576334,0.0128596,0.00764059,-0.0164335,-0.0149906,-0.0313585,0.0337262,0.0111556,0.00115854,-0.0324306,0.0343594,0.0198837,0.00647948,-0.0251199,-0.0240407,-0.0330197,0.03206,0.00493483
0.0201752,-0.0122386,-0.0155934,-0.0133082,-0.0274038,0.0271048,0.0314326,0.0336599,0.0277195,-0.0174852,0.0343476,-0.00924822,0.0356157,0.0205632,-0.000900063,0.0354382,-0.00802178,0.00874802,-0.027845,-0.0143842
-0.00189929,0.0076771,0.0110604,-0.0126797,0.0277498,0.0192275,0.00808042,-0.0115971,-0.00430899,-0.00641238,-0.0113456,0.0230907,0.0221245,0.00852615,0.012616,-0.0352959,0.00434462,-0.028261,-0.00683723,-0.0302448
0.0210744,-0.000997546,-0.0284273,0.0251285,-0.0172875,-0.0232448,-0.0356297,-0.0176728,0.028866,-0.0301823,-0.0354157,-0.013317,-0.0212658,0.00928047,0.0139873,-0.0188193,0.0305387,0.00912589,0.00716092,-0.00172925
-0.0124767,0.025651,0.0207768,-0.02601,0.0259127,-0.0258781,0.00474532,0.0243786,-0.00965086,0.0160725,-0.00318425,-0.0150891,0.0160111,-0.0138282,0.034739,0.0207637,-0.0160511,-0.0296611,-0.023721,0.0147525
-0.0284739,-0.0212231,-0.015954,-0.0192099,0.0314808,-0.0168144,0.0165435,0.0274885,0.00409126,0.014988,-0.0317427,0.0191529,0.0179823,-0.0338539,-0.013745,-0.0316711,0.012484,0.00184654,-0.0217836,0.0147857
0.0159416,0.0263194,0.00348196,-0.00414167,-0.0256879,-0.0305537,0.0279687,-0.00636552,0.0161487,0.0296769,0.00815247,-0.0287949,-0.0159748,-0.00994913,-0.0271131,-0.0288433,0.0216719,0.0284435,0.0120074,-0.0150129
-0.0276106,-0.00932485,0.00708266,-0.0187712,-0.0332874,-0.0118809,0.0323058,-0.0172975,-0.00207418,-0.0167016,1.79007e-05,-0.0330143,-0.0204908,0.0301453,0.0263604,0.0319311,0.0240595,0.0345148,-0.0133254,0.0228566
0.0282932,-0.0212172,-0.020228,0.0339666,0.0315414,-0.030662,-0.0292711,0.00907538,-0.000701024,0.0261197,-0.0165765,0.0211606,-1.10455e-05,-0.0135546,0.0175612,0.0181306,-0.0331389,0.00300491,0.0310325,0.0237778
-0.0332949,0.034703,-0.0131153,0.00849457,2.15126e-05,-0.0235126,-0.0277028,0.0145078,-0.0129561,-0.0318553,-0.00744489,0.0243429,0.0342218,-0.0190576,0.00862045,0.00620816,0.00925378,-0.0193692,0.00462703,0.00867543
-0.0167711,-0.0342356,0.0183326,-0.0320447,-5.49164e-05,-0.0212886,-0.0125868,-0.0145438,0.00927017,0.00834413,-0.0177124,-0.0177313,-0.00575377,-0.0270349,0.00521037,0.00900231,-0.0121784,0.0328293,0.0139436,-0.0236779
0.0241105,0.0218808,-0.00207272,-0.010418,-0.00400392,0.0243123,-0.0112649,0.0203979,0.019854,0.0070769,-0.0123072,-0.0189557,-0.000323442,-0.00979373,-0.0187709,-0.0116904,-0.0227984,0.0116796,0.032561,0.0328806
0.0350676,0.00569567,0.00907406,-0.00847174,0.00218772,0.00437859,-0.0314067,-0.0235988,-0.00274162,-0.0151061,-0.00540116,-0.033317,-0.00965886,0.0156556,-0.032305,0.0208221,0.0100742,0.0170794,0.0020787,0.0229788
0.0266414,-0.0279956,-0.0017117,0.0149128,0.00254786,-0.0066646,-0.00506959,0.0109233,-0.00346227,-0.0347743,-0.0162596,-0.00275656,-0.025481,-0.0161687,-9.41699e-06,-0.0164296,-0.000623982,-0.013611,-0.00470874,-0.000662766
0.019206,0.0340465,-0.013715,-0.0120523,-0.00334654,-0.00816267,0.0303543,-0.00359841,0.0238578,-0.0288428,-0.031293,0.0232671,-0.0348245,0.00938469,0.0304294,-0.00147102,-0.0232568,0.0119597,-0.0219496,-0.0265765
-0.0122826,-0.0276407,-0.0294135,-0.0340295,-0.0190344,0.0125058,0.031456,-0.0145198,0.0323871,0.0171523,0.0147658,-0.0304916,-0.0067785,0.0263456,0.0128247,-0.0254893,-0.0258792,0.0164778,0.00891879,0.0151763
0.0128063,-0.0172456,-0.0289269,0.0189247,0.0300799,0.00589577,0.0351221,-0.000698788,-0.00813777,0.03237,-0.00596005,-0.0316581,-0.00415125,-0.00811553,-0.0139645,-0.0078636,0.0230136,-0.0144454,0.00481613,-0.0267777
-0.0240301,0.0299936,-0.0217395,-0.00694479,-0.0320644,0.0127327,-0.0170129,0.011354,0.0181312,-0.00130361,-0.0261917,0.00320818,0.00446574,-0.0285831,0.0133237,0.0158173,0.0116593,0.0194576,-0.025387,0.0212298
0.0158656,0.00172614,-0.0317909,0.0154052,0.0236321,0.0219657,0.0349864,0.00476137,-0.00797999,-0.0224588,0.0033282,0.0330805,0.0334221,-0.0286485,0.00726621,-0.0167227,0.0174311,-0.0080849,0.025221,-0.030544
-0.0300208,0.0115131,-0.0164886,0.015593,0.0299015,-0.0242896,0.0276126,-0.0182779,0.0148203,0.0111393,-0.0167984,0.00571848,-0.03559,0.0347541,0.012651,-0.00143136,-0.00454326,0.0165567,0.0166116,0.00190308
0.0214267,-0.00551954,0.0163658,0.0338434,0.00985153,-0.0229777,0.0228183,-0.0312067,-0.00120765,-0.0103643,0.0196758,-0.0280229,-0.0184036,-0.00958686,0.007013,0.0284119,0.0198086,-0.00642421,0.0330461,-0.00985177
-0.00408396,-0.0183295,0.0273709,0.0716703,0.0073049,0.016699,0.0273675,-0.000220297,-0.00437981,-0.0317931,0.016613,-0.0380071,-0.00483854,-0.0523211,0.00422679,0.0280657,0.00729714,0.0402637,-0.00522525,-0.0482171
0.0320603,-0.125774,-0.0442015,0.0400274,-0.0512962,0.00452408,0.0457249,0.18969,-0.0514027,0.0444931,0.000669147,0.0994273,-0.0136817,-0.0663941,-0.0543696,-0.0304956,0.00274878,-0.00893888,0.0649002,-0.059642
0.0242143,-0.0841444,-0.051619,0.0291506,-0.0409293,-0.0428618,0.100179,0.105414,-0.0341907,0.00456769,-0.0648393,0.0571147,0.063737,-0.116242,-0.0579465,-0.0173527,-0.0133919,-0.087965,0.0276733,-0.0439115
0.0749735,-0.0109095,-0.0523919,0.0320136,-0.0514635,0.00657011,0.207631,0.0187357,-0.0239119,0.00941352,-0.192059,0.00708628,0.131774,-0.187477,-0.0156274,-0.0532133,0.0380785,-0.0504839,0.0827337,-0.0599217
-0.00465257,0.185833,0.00012508,0.0715369,0.0221404,0.00258642,0.115269,-0.0787125,-0.00937436,-0.039308,-0.118139,-0.052666,0.0847313,-0.0595011,0.0703561,0.014353,0.00845831,-0.0110707,-0.0102243,-0.0815898
-0.0519341,0.172041,0.00891712,0.148323,-0.0490013,-0.00320694,0.184808,-0.0967403,-0.0720463,-0.0376872,-0.209267,-0.0426748,0.126557,-0.111028,0.12723,0.014302,0.0125968,-0.0368192,0.0183916,-0.0405828
-0.116649,0.0748519,-0.0421447,0.140728,-0.0421758,-0.0700545,0.163273,-0.0993549,-0.0714075,-0.129892,-0.111593,-0.146331,0.0892238,-0.122817,0.0310065,-0.0486618,0.0447375,-0.0966268,0.0337812,-0.0454268
-0.0740113,0.110592,-0.0148937,0.0880852,0.0180979,-0.0281585,0.128091,-0.0554194,-0.110128,-0.0509124,-0.0994167,-0.164725,0.0776619,-0.0930523,0.00663421,0.0182331,0.0162579,-0.107035,-0.0179888,-0.0267068
-0.0416194,0.062589,0.0100195,0.0588527,-0.0193193,-0.0170526,0.067136,-0.0237899,-0.0489418,0.000208162,-0.0430428,-0.125537,0.0817354,-0.0917149,-0.00238535,-0.0147019,0.000696622,-0.0811604,-0.0204982,-0.014573
0.00182746,0.0313918,0.0264014,0.0342907,0.0218294,-0.0276835,-0.0224748,-0.0124464,-0.012344,0.0208029,-0.024354,-0.0136518,0.0313678,-0.0212703,0.0130642,-0.0242332,0.011271,-0.0102777,-0.0187104,-0.0379184
0.0002889,-0.0129527,0.0254499,0.00539185,-0.0145837,-0.00192267,0.0332023,-0.00899803,0.0346135,0.0294398,0.014034,-0.00623165,0.0170735,0.00146307,-0.0357052,-0.0278454,0.00514109,-0.0220503,-0.0170355,-0.0062205
0.0331429,-0.00550373,0.0124389,-0.0149985,-0.0194656,-0.0309948,-0.01989,0.0112848,-0.00334057,0.0246646,0.0116758,0.0352617,0.0354732,0.0323987,0.0180207,-0.0103338,0.021212,0.023637,-0.0038237,-0.0264601
0.0349713,-0.00414522,-0.000646206,-0.0171614,0.0130232,0.0279905,0.010352,0.0182514,0.0261826,-0.0209627,0.00861837,-0.0228528,0.0136944,0.03106,-0.012247,-0.0236954,-0.0188024,0.00429592,0.011356,-0.0276953
-0.014351,0.0217641,0.0327369,-0.00519393,0.00384313,0.0105468,0.0332868,0.00904345,0.0277653,0.0349717,0.0143326,0.0161657,0.031522,-0.0249707,0.0139964,-0.0109505,-3.44842e-05,0.0227898,0.0258397,0.0277645
-0.0150481,-0.015567,-0.00249866,-0.00529425,-0.0292672,-0.0211586,0.0205696,-5.08726e-05,0.0227229,0.00502281,-0.0272228,-0.0155416,0.01577,-0.0171438,0.0170454,-0.0252844,-0.0305534,0.0296902,0.00816959,0.0240066
-0.0292169,0.010346,0.019114,-0.000656973,0.00878974,-0.0245382,-0.00881878,0.0100256,-0.00544047,0.0297397,0.01259,0.0320144,-0.00403757,0.0329204,0.00972232,-0.0196522,0.0293959,-0.0295718,0.0252867,0.0228047
-0.0341237,0.0123692,0.000504543,0.0263787,0.0138695,0.0157074,0.0255412,-0.0330364,0.00819967,0.0289343,-0.0132292,0.023085,-0.0201671,0.000794413,0.0225975,-0.00407945,-0.0140769,0.015519,0.00213279,-0.0229626
-0.00694443,0.0108224,-0.0311303,0.0116489,-0.0268404,0.00267479,0.0171611,0.0183659,-0.0150656,0.0240355,0.00850942,-0.0128416,0.0309935,-0.0227128,0.00769153,-0.0290676,0.0292204,0.0284907,0.0305585,0.0111489
0.0347906,0.0248431,0.0346004,-0.0024047,0.00461689,-0.0194859,-0.00237555,-0.0166133,0.0295728,0.0201451,0.0317277,0.0174607,0.0316657,-0.0163485,-0.00843072,0.0341926,0.0319712,0.00914737,0.0206049,0.0108682
-0.0317043,0.0113579,0.0231036,-0.000841022,-0.0218232,0.0279091,0.0335526,0.0171858,0.0309578,0.0327933,0.0150402,0.0117136,-0.0216595,0.0174511,-0.0044963,-0.0335856,0.0308912,0.0318641,-0.0289545,0.0214271
0.0119988,0.0123011,0.0229166,0.0153185,0.00881902,0.0171005,-0.0311399,-0.0318922,0.0299188,-0.00333462,0.0265113,0.00514137,-0.0104745,-0.0140334,-0.0228124,0.015649,-0.0186723,0.0256057,0.00878782,0.0231853
0.0231868,0.0110096,-0.00318665,0.0228915,-0.0351013,-0.0308879,0.0220738,-0.0319297,0.0137125,-0.00849229,-0.0162937,0.0342193,-0.00437205,0.0095721,0.00851264,-0.013212,-0.0265415,-0.0148874,0.0174516,0.00803453
-0.032351,-0.0186607,-0.00353667,0.0264015,0.0160788,-0.00342664,-0.0335683,0.0293013,-0.00749807,-0.0180271,-0.0260753,0.0141109,0.00439593,-0.00260752,-0.00108702,0.0229508,0.00525111,0.0132292,0.00883852,0.00869157
0.0053212,0.0181279,-0.0171748,-0.00349362,-0.0243281,-0.0275465,0.0017044,0.0157529,-0.0113481,-0.00243787,-0.0269043,-0.0259824,0.00126388,-0.00100321,0.0124161,0.0348971,0.0170335,-0.026814,-0.0314754,-0.0157308
0.0115542,-0.00971334,0.0114126,-0.0196501,-0.00763137,-0.0100346,0.0197335,0.0062255,-0.00433246,-0.00482473,-0.0160625,0.0466342,0.00068262,-0.0357891,-0.0059835,0.0156031,-0.00397857,0.0237598,0.0367312,0.0158088
-0.0223444,-0.139087,0.0476907,0.0220017,-0.0224639,-0.0396011,0.000464428,0.0299963,-0.0225277,0.0446509,0.0169632,0.141155,0.0404011,-0.0384515,-0.104733,-0.0216832,0.0641687,-0.0198509,0.0444061,0.038428
-0.036982,-0.197252,0.133418,-0.0335666,-0.103518,-0.00215983,-0.0505774,0.0557775,0.00111116,0.061535,-0.00822089,0.20136,0.0432099,0.00597938,-0.0779604,-0.080009,0.0297965,-0.020175,0.0929746,0.0632517
-0.0357581,-0.0959481,0.182245,0.0436918,-0.0728021,-0.0583432,0.0198472,0.0248912,-0.0194499,0.0915168,-0.022867,0.133422,-0.00732932,-0.0922626,-0.133961,-0.0694387,0.0484979,-0.0146823,0.0514742,0.0479616
-0.0465831,-0.167515,0.152886,0.0544136,-0.0985071,0.0108111,0.0989214,0.207951,0.00944558,0.0519931,-0.0151531,0.204016,0.034262,-0.225082,-0.145691,-0.1036,0.0365702,-0.000982562,0.100472,-0.143462
0.00452296,-0.240264,0.139772,0.0799336,-0.0955733,-0.00888321,0.128461,0.198868,-0.0571687,0.0611549,-0.0244594,0.284094,0.0647398,-0.272447,-0.148099,-0.0661597,0.0908252,-0.0876409,0.129342,-0.185271
0.103954,-0.133886,0.0496213,0.0144169,-0.127216,-0.137779,0.160959,0.17483,-0.127741,0.111704,-0.208156,0.257958,0.0815262,-0.257483,-0.00537479,-0.086929,0.0380681,-0.0864448,0.0987486,-0.148869
0.243329,-0.0561732,-0.185737,0.0821986,-0.0805595,-0.231416,0.226038,0.0663197,-0.217634,0.0560906,-0.335866,0.0311082,0.143986,-0.402716,0.148049,-0.123731,0.120506,-0.163932,0.153443,-0.156616
0.149949,0.0517638,-0.0565606,0.141693,-0.00225035,-0.125279,0.199605,0.0152616,-0.214912,-0.0113843,-0.336711,-0.0804491,0.146472,-0.337638,0.108193,-0.0644756,0.0625684,-0.138672,-0.0567005,-0.186604
0.030217,0.228913,0.0697522,0.214807,0.166693,-0.0815113,0.187691,-0.170417,-0.139173,-0.0986279,-0.28804,-0.168753,0.206505,-0.322756,0.175458,0.107938,0.0853964,-0.145162,-0.268366,-0.182787
-0.158722,0.0858238,-0.12218,0.340494,0.152708,-0.0878886,0.11319,-0.0862415,-0.17719,-0.126893,-0.139533,-0.324265,0.0898524,-0.28572,0.0628855,0.0522292,0.197792,-0.133928,-0.188018,-0.169064
-0.238745,-0.0403384,-0.243977,0.380816,-0.0277748,-0.0354531,0.110831,-0.0247501,-0.134285,-0.171008,-0.125101,-0.321374,0.0608068,-0.389882,0.0260636,-0.0137179,0.382635,-0.117154,-0.0158771,-0.133961
-0.179866,-0.0605012,-0.341136,0.391966,-0.0208735,-0.0406097,0.246257,-0.111986,-0.148285,-0.250509,-0.174988,-0.244968,0.0307529,-0.470044,0.00582267,-0.0689643,0.401858,-0.119832,0.0591284,-0.182778
-0.130229,-0.236486,-0.318861,0.249263,-0.0477106,-0.0316271,0.169748,0.0122418,-0.142987,-0.114602,-0.106927,0.0775851,0.00413344,-0.368471,-0.150506,-0.057103,0.254115,-0.123548,0.0755716,-0.160306
-0.0079963,-0.0350088,-0.0189735,0.0443629,0.0361979,-0.00939476,-0.00632252,0.1051,-0.055323,-0.0253986,-0.0817352,0.172196,0.0242986,-0.157349,-0.00285779,0.0283949,-0.00113621,-0.062709,0.00172292,-0.0455513
-0.033484,0.0357591,-0.0322932,0.0449594,0.0189983,-0.00591695,-0.0129139,0.0288211,0.0297415,0.00782638,0.0357646,-0.0224878,-0.016825,0.0147964,0.0176963,-0.0263239,0.0287772,0.0300042,0.033041,-0.0182429
0.00371194,-0.00965887,0.0342559,-0.0267903,0.0219881,0.0115237,-0.0121247,0.0297015,0.000427577,0.0209423,0.0111497,0.0165649,0.028236,-0.00794354,0.0174579,0.0127574,0.0227517,0.00791997,-0.019166,-0.0222857
0.0283857,-0.0266977,0.0078864,-0.0311167,-0.0192493,-0.0238427,0.0332256,-0.0118942,-0.015781,-0.0142834,0.00608626,0.00483812,0.0295664,0.0209123,0.0276716,0.0350193,0.0159181,0.0296706,0.0200152,0.000788612
-0.0319869,-0.0244808,0.0188414,-0.019698,0.0353858,0.00617129,-0.00130711,0.00725386,-0.0118852,0.00981248,0.00671232,-0.0208316,-0.0210007,0.0119386,0.00070468,-0.000658997,0.0049454,0.0158796,-0.00667404,-0.0084129
0.0029689,0.0219102,-0.00210459,-0.00823737,-0.000702909,0.00379994,0.0339416,0.0122386,-0.00910415,0.0356939,-0.0159463,0.0294264,0.00621621,-0.0125978,-0.0305034,0.0247763,-0.031765,-0.0234984,0.0279042,-0.0142666
-0.0216796,0.0307806,0.00490899,-0.000596301,0.0203081,0.0224184,0.0307982,0.0328635,-0.02373,-0.0150259,-0.0152954,-0.0147105,0.0253741,0.0316558,0.00595366,-0.0116454,-0.0198307,0.0167462,0.0101406,-0.00716114
-0.0113207,-0.00433356,-0.0193715,0.0107221,-0.0295957,0.0207269,-0.0164518,-0.0285113,-0.0248766,-0.020879,0.0152038,-0.000658944,0.0304836,0.0305091,-0.0179642,0.00977088,0.0101063,0.00985557,-0.0342187,-0.0201206
0.00946629,-0.00345812,-0.0187048,0.0268199,-0.0276275,0.0149761,-0.0105915,-0.0134501,0.0211697,0.0297193,0.032358,0.0257266,-0.0335356,-0.0153916,0.0149332,-0.0305903,0.0333451,-0.0173559,0.0174766,-0.0271762
-0.020089,0.0074355,-0.0303008,-0.0099319,-0.00153661,0.00241148,0.0206251,0.0355415,0.0201839,-0.0218059,0.00718962,-0.0273397,-0.0305072,-0.00326406,-0.0071631,0.0199894,0.00180674,-0.00344905,-0.0234409,0.00559052
0.0174491,-0.0292254,-0.0147875,-0.0133434,-0.0207218,-0.0123126,-0.035005,0.0255689,-0.00422797,-0.0325577,-0.012001,0.0222137,0.0257629,-0.027918,0.0254416,0.0164175,0.00361248,0.00263197,0.0320541,0.0267427
0.00839502,-0.0181031,-0.0219508,-0.0110549,0.0127372,0.0305442,0.0217129,0.0116485,0.0115692,0.0145836,0.0277761,0.00962706,0.0340787,0.00284631,-0.0292647,-0.0321223,0.0300436,0.025201,0.00241328,0.0201643
-0.0123649,-0.0526377,0.00723037,0.0344168,0.0131452,-0.0133246,0.0205482,0.07139,-0.01793,-0.0196022,-0.0234825,0.0482536,-0.0104144,-0.0446371,0.02281,0.0226122,0.00242119,-0.0317116,-0.0162763,-0.0100549
0.00881045,-0.0484889,-0.0664826,-0.0152612,0.0200471,-0.053007,-0.0224737,0.098193,-0.0576845,0.000220507,-0.0420797,0.0619777,-0.00693125,-0.0654854,-0.0454099,-0.00865178,0.0392632,-0.0512083,0.0115372,0.00864313
0.00342704,-0.0687425,0.0960763,0.0104482,-0.00490812,-0.0583018,0.0150769,0.0792448,-0.0471446,0.044106,-0.0454153,0.17618,-0.0273826,-0.0777228,-0.0338992,-0.0286644,-0.0229008,-0.0646853,0.00580911,-0.0119296
-0.0807354,-0.181388,0.186183,0.095386,-0.0660291,-0.00199989,0.0275571,0.0459016,-0.0599715,0.115125,-0.0352823,0.170202,-0.092795,-0.054367,-0.0688356,-0.0480808,0.0407004,-0.0735712,0.0990411,0.0474705
-0.0491198,-0.133937,0.129251,0.0486094,-0.0387184,-0.0674881,-0.0180126,0.0164216,-0.0253948,-0.00806419,-0.0524337,0.0198624,-0.046495,0.0202752,0.0279549,-0.0749069,0.0679594,-0.0489922,0.0994223,0.00638148
-0.0885565,0.00743758,0.17409,0.00149906,-0.108508,-0.0488535,0.0104042,-0.0351621,0.0114295,-0.104367,-0.0389833,-0.154954,0.00950208,-0.0689117,0.0383673,-0.0899491,-0.0186596,-0.0783639,0.0706214,-0.123283
-0.020151,-0.10157,0.180473,0.0408766,-0.0628171,-0.0805541,0.0554908,0.124273,-0.0696297,-0.0559119,-0.096776,0.00583762,-0.00102854,-0.102448,-0.0379959,-0.0161645,-0.00407438,-0.0726719,0.0177912,-0.133448
-0.0425494,-0.185777,0.128179,0.137644,0.0387504,-0.0840563,0.0830788,0.0843663,-0.192936,0.0576785,-0.183391,0.149928,-0.0816642,-0.27256,-0.123321,0.132722,0.0418417,-0.191743,-0.129651,-0.0551458
0.00610069,-0.233469,-0.107439,0.0621814,-0.0131055,-0.325424,0.02923,0.0832413,-0.3214,0.142863,-0.302593,0.067046,-0.0518458,-0.276415,0.0673941,0.0148589,0.0885544,-0.12207,-0.000128491,0.114815
0.179461,-0.267595,-0.118251,0.105887,-0.0420103,-0.378321,0.330507,0.0619074,-0.439944,-0.0122195,-0.482483,0.235968,0.205456,-0.491201,-0.0153294,0.0269471,0.0164565,-0.273378,0.0185793,-0.115568
0.24159,-0.260234,0.245997,0.278979,0.0917118,-0.29713,0.326337,0.139872,-0.364195,0.260864,-0.424101,-0.08453,0.179042,-0.611352,-0.202645,0.100572,-0.0331006,-0.28209,-0.135141,-0.247701
0.107257,-0.153262,0.276037,0.408131,0.264445,-0.156897,0.35267,0.228653,-0.1737,0.126845,-0.292184,-0.205062,0.251354,-0.74539,-0.31508,0.161783,0.0979408,-0.319767,-0.307324,-0.339273
0.161161,-0.0579786,0.426632,0.184765,0.338654,-0.0891939,0.156309,0.391218,-0.130081,0.316416,-0.0271108,-0.107844,0.193091,-0.244811,-0.421105,0.324213,-0.0471656,-0.276861,-0.412188,-0.254314
-0.00294509,-0.160143,0.00444371,0.321805,0.0357548,-0.0173387,0.019369,0.188597,-0.141628,0.0489173,0.00751366,-0.121047,0.0898519,-0.211962,-0.282443,0.0687197,0.0953305,-0.251212,-0.0707291,-0.051831
-0.0121119,-0.16204,-0.201602,0.260893,-0.0804283,0.0112135,-0.0186687,-0.0685898,-0.18827,-0.140065,-0.180935,-0.214173,-0.0206341,-0.219792,-0.0185854,-0.0458358,0.270734,-0.126228,0.0625003,-0.0505615
0.0377067,-0.175032,-0.176962,0.0908123,-0.116136,0.0210226,-0.0560959,-0.0445886,-0.106216,-0.162349,-0.069078,-0.0563989,-0.0126688,-0.0833409,-0.0187864,-0.134484,0.231907,-0.0473942,0.0826821,0.0905303
-0.0585774,-0.080391,-0.00701634,0.0639416,-0.00378596,-0.0475397,-0.071305,-0.0844406,-0.0114374,-0.139867,-0.0540707,0.123916,-0.099894,-0.0284533,-0.13253,0.0106993,0.110305,-0.042249,0.038936,0.0567482
-0.0788078,0.0408795,0.0112013,0.0320975,-0.0364976,0.0300875,-0.113786,-0.122057,0.0663124,-0.0563392,0.0527404,-0.022813,-0.135061,0.0455056,0.0274729,0.0194202,0.0471029,0.0211274,-0.0281652,0.00862221
-0.0462845,0.0392256,-0.00329402,0.0265457,-0.0291496,0.0311468,-0.035604,-0.046475,0.021784,-0.0222433,0.079792,-0.00907522,-0.0275588,0.0243645,0.0396704,-0.00912242,0.0514045,0.0566456,0.0543805,-0.0454276
-0.0118383,-0.0153943,-0.00146321,-0.0268112,-0.00181218,0.0152729,0.0706337,0.0258568,-0.0297132,-0.0455099,-0.0261158,0.0513944,0.0011541,-0.0185781,0.0393299,-0.00139929,-0.0397572,-0.00463427,0.00259596,-0.0374085
-0.0214792,0.0325986,0.00778143,0.00506511,0.0250802,-0.0271094,0.00623418,-0.00533782,0.0207403,0.00383209,-0.0157282,-0.0217415,0.000961043,-0.0333814,0.0153191,0.0252372,-0.0319423,-0.00889536,-0.0259529,0.0275782
-0.0257436,-0.0333102,0.000402058,0.0262793,-0.0166612,-0.0295405,-0.0107372,0.0141152,0.0225696,-0.00320758,-0.0112853,-0.00330194,0.00348065,0.0231781,0.0167923,-0.0110135,0.0149066,-0.00125185,-0.0198817,-0.030761
-0.0123444,-0.00792729,-0.0261447,-0.0296016,0.0212524,0.0276883,0.0238178,-0.0145478,-0.0108668,-0.0130011,0.015056,-0.0104828,-0.0200232,-0.0221754,0.0264193,0.00461832,0.0256102,-0.0138157,-0.0199525,-0.0142287
-0.0177518,-0.0275965,-0.00909141,0.0210814,0.0247516,0.0147762,-0.0307872,-0.0337982,-0.0268592,-0.0220697,0.0266984,-0.00685882,0.0156747,0.0142715,-0.0196905,-0.0111361,0.00871735,-0.02873,0.00308733,-0.016549
0.0129396,0.0243143,0.0340118,-0.0176724,0.0183502,0.00997378,-0.0125099,-0.00936047,-0.0222489,-0.00322796,0.00848269,-0.00958978,-0.0260174,-0.025134,0.0220032,-0.0219516,0.0188558,0.010964,-0.0276918,-0.00931337
0.00169033,-0.0128609,0.0144785,0.00551635,0.00584624,0.0143924,0.0189016,-0.0173986,0.00111743,0.0076872,0.0354748,0.010521,-0.0303634,-0.0262339,-0.00334129,0.0286872,-0.0299348,-0.0327838,0.0259023,0.0143245
0.00805564,0.00398789,0.00945506,-0.00382889,0.0307445,0.000664215,-0.0125007,-0.0265709,-0.01368,-0.00439548,0.00882135,0.0290949,0.0105043,0.0115882,-0.00369415,0.0344027,-0.0160971,0.0183196,0.00469743,-0.000939107
0.00117613,-0.0325368,-0.0119704,-0.0259545,0.0255508,-0.0123184,0.00516298,0.0446996,0.0219476,0.0254209,0.00665959,0.00922137,-0.0214773,-0.00546083,-0.00145978,-0.0165026,0.0180623,0.0193966,0.0265931,0.00355132
0.0494903,-0.0388,-0.0309141,0.0679617,-0.0304807,-0.0890387,0.0249836,0.0874522,-0.10751,0.0581042,-0.0486843,0.14204,0.0148375,-0.129951,0.0165709,0.0150037,0.0205687,-0.0803704,-0.0312426,-0.0480663
-0.0181829,-0.18123,-0.0749608,-0.0114577,-0.0633535,-0.138887,-0.0286208,0.244734,-0.147234,0.0433749,-0.0918787,0.173023,0.0395617,-0.197509,-0.0720371,-0.0219302,0.0314471,-0.154641,0.0451803,-0.0288481
-0.000260239,-0.1729,0.174333,-0.0877421,-0.0483086,-0.244388,-0.102889,0.2934,-0.213613,0.243268,-0.141783,0.441116,-0.0213404,-0.113293,-0.0756397,-0.061634,-0.151594,-0.152735,0.0576829,0.00724745
-0.117264,-0.196643,0.078962,-0.0732421,-0.0699009,-0.21768,-0.208329,0.442064,-0.209614,0.26018,-0.0524344,0.310337,-0.0372731,-0.0959654,-0.0796279,-0.110955,-0.0820829,-0.104423,0.134524,0.133013
-0.154051,-0.142835,-0.0586375,-0.0128048,-0.0606688,-0.185911,-0.29927,0.443924,-0.0910127,0.145808,-0.0299698,0.161523,-0.061126,-0.104124,-0.151425,-0.157046,0.1406,-0.0867233,0.152397,0.155914
-0.375593,-0.309953,-0.342135,0.134536,-0.246269,-0.375436,-0.516188,0.672603,-0.13358,-0.048245,0.0964671,0.167077,-0.104582,-0.398493,-0.307123,-0.298944,0.460747,-0.0493999,0.411668,0.25789
-0.237842,-0.377961,-0.389825,0.251917,-0.29771,-0.487985,-0.266934,0.506837,-0.436272,-0.0821478,-0.0728298,0.114315,0.0312271,-0.571874,-0.248581,-0.386872,0.282651,-0.0998847,0.421735,0.125349
-0.147973,-0.155951,0.0912375,0.109792,0.0558313,-0.477756,0.0255621,0.0064743,-0.421101,0.0824672,0.140585,-0.086434,-0.0612996,-0.300901,-0.0104577,-0.000791584,-0.0324619,-0.0399599,0.0540024,0.0293455
0.0935184,-0.117656,-0.0447724,-0.189093,-0.160425,-0.526716,0.0656878,-0.06512,-0.535099,-0.110365,-0.0337735,0.0848312,0.0307522,-0.0523506,0.348093,-0.0652231,-0.19605,-0.111274,0.13986,0.127188
0.136328,-0.463765,-0.471264,-0.285349,-0.212698,-0.590344,0.00738323,0.322858,-0.70159,-0.238709,-0.15298,0.52568,0.127534,-0.105275,0.252204,-0.186784,-0.0810231,-0.430208,0.213965,0.274674
-0.202425,-0.489915,-0.186303,0.0269111,0.00523043,-0.492917,0.0263145,0.437237,-0.467618,0.0303656,0.0564775,0.260826,0.0552329,-0.318764,-0.130953,-0.0299861,0.0880223,-0.415506,-0.0243943,0.0103193
-0.240536,-0.234283,-0.0348048,0.258163,-0.0323539,-0.288958,0.266745,0.356066,-0.169321,-0.166673,-0.0835677,0.0912768,0.333716,-0.389148,-0.265414,-0.00643741,-0.0580478,-0.259703,0.00179368,-0.167605
-0.173422,-0.00718022,0.211536,0.286038,0.151966,-0.0396185,0.258389,0.321391,0.0747953,-0.13939,-0.0724268,0.0404054,0.427265,-0.16072,-0.380081,0.198538,-0.264416,-0.157798,-0.196337,-0.238646
-0.38755,-0.108373,-0.187423,0.306161,0.00211801,-0.204821,-0.0517787,0.360194,-0.228011,-0.272216,0.247493,-0.0349239,0.229028,-0.0417632,-0.483849,0.0629186,0.0674296,-0.18224,-0.00359037,0.135767
-0.213257,-0.0567252,-0.0536063,0.265391,0.150269,-0.156616,0.0603165,0.0113969,-0.176703,-0.136866,0.165374,0.106717,0.105201,-0.0280869,-0.256237,0.158144,0.109227,-0.0728963,-0.149093,-0.0601498
0.220674,-0.128922,0.072167,-0.0399487,0.0163235,-0.0200299,-0.0364611,-0.00118586,-0.085623,-0.0565211,-0.0318486,0.105957,0.0148799,0.158775,-0.0713085,0.0712652,-0.0802595,-0.0372035,-0.0688904,0.0416245
-0.102666,-0.112944,-0.0519059,0.0731502,0.0677305,-0.0850692,-0.222398,-0.266127,0.0598075,-0.233946,0.111629,-0.253265,-0.110531,0.00460489,-0.0605651,0.0941165,0.108137,0.00133102,-0.0618349,0.0696786
-0.236344,0.0356317,-0.211427,0.195045,0.136323,-0.00250232,-0.0743012,-0.387159,0.0869212,-0.232433,0.195489,-0.377239,-0.137555,0.0326025,-0.0792196,0.130122,0.229082,0.0708525,-0.175067,-0.0822007
-0.244229,0.0561011,-0.0955662,0.231663,0.230217,0.0734384,0.10719,-0.286361,0.0410302,-0.0663101,0.185013,-0.227145,-0.035723,-0.0639803,-0.134868,0.208191,0.0834588,0.0724959,-0.258534,-0.137976
-0.204736,0.0928131,-0.0316047,0.20757,0.00476134,0.00359761,0.0792927,-0.090309,0.032542,-0.0809867,0.130604,-0.130207,-0.00353289,-0.00577039,0.0627545,0.0314835,0.0555667,0.0250305,-0.0623627,-0.0576761
0.00951786,0.0126494,-0.0303814,0.0475088,-0.0098399,-0.0498188,0.0160914,-0.0316798,0.00937399,-0.049979,0.0312508,-0.0268627,0.0415504,-0.0373054,0.0520636,-0.0172404,0.0147666,-0.00991462,-0.0198402,0.0447773
0.0154341,0.0316251,-0.0242068,-0.00466266,-0.0217897,-0.0311643,0.0111589,-0.032745,-0.0309369,-0.0145213,0.00349012,0.0311135,0.0043314,-0.00363793,0.00983077,-0.0103321,0.00951164,-0.054187,-0.0205223,0.0159315
0.000569586,0.0287379,-0.0164906,0.0295751,0.0141573,-0.0239236,0.0173686,0.0291525,0.00561657,0.0281054,0.0355446,-0.00380372,0.022907,-0.0277795,0.0246304,-0.0260534,0.00827258,0.0101014,0.0111027,0.0263987
-0.0295805,-0.0335257,0.0323655,-0.032803,-0.020425,-0.0234156,-0.0243365,-0.0271298,-0.0178423,0.0299097,0.0329623,0.00443421,-0.00789667,-0.0263601,0.000443672,-0.0273217,0.0123566,-0.00335695,-0.00812289,0.0235491
0.0229586,0.0336761,0.0145551,-0.0264969,-0.00312555,-0.00799323,0.0321452,0.0154692,-0.0256178,0.0265681,-0.0315128,-0.0329335,0.0270955,-0.00861596,-0.0175472,0.0136995,-0.000950448,0.00514332,-0.00389298,0.0189867
0.0239395,-0.0149036,-0.00692107,0.0356878,-0.000304597,-0.0319496,0.00547203,-0.0211096,0.030464,-0.02061,0.0148863,0.0214278,-0.0328305,-0.0142406,0.0153354,0.0142792,-0.00183151,0.032,0.0268644,-0.0235443
0.00613517,-0.0230748,0.0131712,0.0242465,-0.0328881,0.0345474,-0.0303441,-0.0229143,0.013075,0.00730902,0.0491449,0.0478184,-0.0266317,0.0491966,-0.000584786,-0.00191858,-0.00851162,0.0170333,0.0320076,-0.0267209
0.0366733,0.0314227,0.0319805,0.0157356,-0.024279,-0.064036,-0.0347194,-0.0625886,0.0170426,0.0406883,0.0416366,0.0165439,-0.00610496,-0.0119038,-0.0425848,0.0284614,-0.017646,-0.00385251,0.00913196,-0.0511031
0.0608528,0.0422384,-0.0427839,0.0438787,-0.0344017,-0.172569,-0.0387395,0.0524072,-0.158665,0.0960173,-0.0988806,0.203037,0.0980236,-0.191742,0.00871474,0.0177329,-0.0891464,-0.0981861,0.0203743,-0.0247331
0.0192304,0.0195305,-0.0817697,-0.195245,-0.0330763,-0.334022,-0.171892,0.347701,-0.412869,0.124737,-0.216376,0.432852,0.177408,-0.148547,0.0704367,-0.0572227,-0.327682,-0.357937,0.0860904,0.0822887
-0.0464343,-0.106878,-0.177648,-0.135961,-0.144838,-0.329831,-0.254218,0.627219,-0.380581,0.165411,-0.209121,0.486123,0.0308511,-0.127658,-0.0265902,-0.183428,-0.136427,-0.330689,0.212665,0.249541
-0.17565,-0.192706,0.0464175,-0.0539447,-0.149405,0.109968,-0.333428,0.536708,0.256678,0.21783,-0.00433305,0.238448,-0.227973,0.0228261,-0.194794,-0.204102,0.205173,-0.0336206,0.273584,0.207179
-0.364061,-0.11136,-0.0261217,-0.0306846,-0.16066,0.0171919,-0.480571,0.38366,0.340436,0.00774247,0.112079,0.102032,-0.353979,0.161157,-0.148344,-0.225058,0.402581,0.060334,0.238735,0.350322
-0.0509612,-0.044997,-0.13294,0.0241351,-0.245793,-0.144988,-0.268882,0.35937,-0.0827961,-0.0114548,-0.173095,0.0964055,-0.211362,0.0723482,-0.0288431,-0.363551,-0.0525746,0.049223,0.493066,0.0950886
-0.120725,0.114074,-0.283852,0.145678,-0.102615,-0.510305,-0.191897,0.566378,-0.48088,0.0676191,0.0177111,0.163955,0.00423631,-0.149515,0.0656902,-0.260071,-0.267806,-0.117898,0.374171,0.12776
0.0559296,-0.175572,0.0507485,-0.429596,-0.0570278,-0.2674,-0.154296,0.431013,-0.270515,0.150607,0.156516,0.13863,0.0134164,0.0274501,-0.0177159,-0.103271,-0.309222,0.0303644,0.0993095,0.171968
0.400896,-0.155911,0.0904709,-0.667178,-0.0728758,0.022608,0.174889,0.0129447,-0.087193,0.239367,-0.254546,0.31531,0.142688,0.147025,0.235942,-0.104878,-0.573688,0.165534,0.067732,-0.124017
0.05858,-0.324884,-0.342373,-0.378587,-0.281651,0.107664,0.00195403,0.306519,0.162147,0.0156401,-0.133306,0.315483,-0.107361,-0.0219865,-0.0364355,-0.25194,-0.050923,-0.137283,0.212666,0.179862
0.156171,-0.144518,-0.418242,-0.341915,-0.42246,0.0209169,-0.0373884,0.191394,-0.0954843,-0.0253816,-0.224096,0.175757,-0.0614178,-0.046161,0.0724437,-0.346664,-0.279768,-0.26669,0.338641,0.398282
0.425742,-0.0640468,-0.210771,-0.204143,-0.202602,0.0388767,0.205197,0.357283,-0.23629,0.102573,-0.41261,0.558162,0.192975,-0.00716712,-0.158746,-0.0965984,-0.7025,-0.309062,0.0816788,0.136768
0.281576,0.127373,-0.240558,-0.00177013,-0.130223,-0.00811077,0.450856,0.0527829,-0.0971767,-0.250413,-0.399587,0.14739,0.218486,0.0607314,-0.307015,-0.0417149,-0.602152,-0.235159,0.0544364,-0.195128
-0.260258,-0.0434939,-0.475859,0.111641,-0.226853,-0.398109,0.100113,0.0187077,-0.344263,-0.561959,0.211181,-0.0736004,0.129972,0.131145,-0.287293,-0.132332,0.0579139,-0.279203,0.197716,0.0698772
-0.299009,0.120889,-0.210088,0.106565,0.0455407,-0.628763,-0.0517474,0.00905872,-0.535193,-0.283192,0.292352,0.0577955,0.212091,0.227624,-0.292877,0.129386,0.048828,-0.17314,-0.0431692,0.383658
-0.0328176,0.0841173,-0.0657421,-0.202277,-0.107853,-0.481968,-0.318435,0.126712,-0.368747,-0.0347783,0.109733,0.299629,0.029312,0.324603,-0.0699006,-0.0330749,0.0931602,0.00114648,0.0305142,0.529198
-0.036521,0.00773474,-0.133633,0.150414,0.0971659,-0.315803,-0.133181,-0.154085,-0.133877,-0.0383387,0.0113327,0.174422,-0.0369321,0.0344829,-0.182067,0.122252,0.217844,-0.012625,-0.124742,0.12025
-0.139453,0.148964,-0.178517,0.139184,0.0630654,-0.20876,-0.17379,-0.385008,-0.172803,-0.165439,0.156116,-0.251822,-0.225615,0.0846184,-0.178621,0.0607458,0.173883,0.105839,-0.100489,0.236481
0.108629,0.20471,-0.14921,0.0157447,0.0844109,-0.103302,-0.0760705,-0.330701,-0.160891,-0.185795,-0.00651141,-0.279885,-0.166586,0.117775,0.00546614,0.0990687,-0.00604088,0.0247345,-0.112838,0.156297
0.148856,0.156895,-0.114747,0.00120111,-0.0544932,-0.0595914,-0.0240721,-0.220116,-0.0596673,-0.237515,-0.0862656,-0.203152,-0.0902423,0.0671314,0.197241,-0.0729587,-0.00185924,0.00795024,0.0680719,0.220406
0.00388203,0.0445016,-0.012411,-0.0448842,-0.0454391,-0.0391378,-0.0828314,0.011099,-0.0220612,-0.0605815,-0.0720073,0.0315993,-0.0168978,0.0520018,0.06616,-0.0333707,0.0387677,-0.0436942,0.0278958,0.147528
0.0378024,0.00967099,0.0208379,0.0421263,-0.0248668,-0.0642853,-0.0145691,-0.0211721,-0.068963,0.0070604,-0.0394735,0.0632563,0.030247,-0.0192258,-0.0099398,-0.00842408,-0.0402922,-0.062568,0.00702136,-0.0256984
-0.0310106,0.0263621,0.0269653,0.0081202,0.0258022,0.0342736,0.0153866,-0.00185202,-0.0335597,0.0323201,0.029997,-0.031981,-0.0311067,0.0266296,0.00329416,0.0245152,0.00141741,-0.032978,0.0255482,-0.0337193
0.0346622,0.0235845,-0.0264233,0.0235751,0.0205513,0.0162935,0.00769688,-0.0240273,-0.0119519,0.025164,0.0252325,0.0333717,0.000851105,-0.0287127,-0.0258662,0.0296735,-0.0302852,-0.00356056,-0.00887449,-0.0297131
0.0102432,0.00453126,-0.0312111,-0.0351459,-0.0120996,-0.00915819,0.0204289,-0.0230093,-0.00924454,-0.0176363,0.0354283,-0.0158263,0.0214008,0.0353406,0.0104434,0.014967,-0.0357103,-0.00704361,0.0245843,0.0202994
0.00851701,0.0174315,-0.0207843,0.00127546,0.00420064,-0.0199684,-0.00296941,-0.00916924,0.0144378,0.0302159,0.0332971,-0.00105344,0.0254824,0.0361601,-0.0155343,0.034022,-0.0239321,0.0125218,0.00096962,0.0278863
0.0353059,0.0273086,0.0295271,0.00972488,-0.0400218,-0.00350963,-0.0266568,0.0521104,-0.017246,0.126352,0.00508444,0.116884,0.0451029,0.00505153,-0.00242533,-0.024272,-0.0296473,-0.0103333,0.0230873,0.0907019
0.0782225,0.0176594,0.094938,0.0035162,0.0148593,-0.0307179,-0.0366192,0.00822955,0.0383114,0.0911296,-0.0105955,0.0821469,0.0650259,-0.0495849,0.00254392,0.0062564,-0.0247909,0.0390737,-0.00735352,-0.0334134
0.0714164,-0.0206522,0.0411251,-0.0342843,-0.0430513,-0.1984,-0.202432,0.0835013,-0.0884428,0.0481362,-0.0622157,0.219879,0.172839,-0.0638907,-0.00854386,0.0110679,-0.148911,-0.0888274,0.0285245,-0.0495037
0.000937199,-0.13582,-0.258311,-0.164596,-0.108313,-0.225499,-0.258489,0.462703,-0.362694,0.0277609,-0.171105,0.443069,0.172291,-0.0954062,0.0194263,-0.113577,-0.24788,-0.28754,0.185673,0.140844
-0.0522122,-0.125382,-0.34088,-0.127501,-0.0704347,-0.108466,-0.330413,0.471842,-0.241751,0.0217257,-0.111218,0.225735,-0.015007,-0.0564031,0.00312345,-0.182957,0.126897,-0.23603,0.277798,0.181998
0.0465149,0.0491008,-0.223328,-0.130939,-0.136602,0.0645987,-0.442713,-0.0318839,0.0193768,-0.0867475,-0.133874,-0.13782,-0.279182,0.35238,0.132359,-0.142337,0.17207,-0.151192,0.18455,0.265057
0.00124881,0.193021,-0.0518839,-0.0456767,-0.235409,0.11526,-0.221316,-0.127927,0.130478,-0.131454,-0.0891614,-0.328173,-0.277422,0.437232,0.134953,-0.167152,0.131965,-0.00842466,0.257021,0.100418
0.0427764,0.202487,0.295247,0.0443506,-0.23337,0.155257,0.0369768,0.0474033,0.204535,0.165515,0.127501,-0.254992,-0.332851,0.137124,-0.0665046,-0.238915,-0.00596408,0.0721148,0.312864,-0.197883
-0.0948597,-0.0703396,0.0881413,-0.0825168,-0.217765,0.106831,-0.226429,0.634863,0.0280976,0.255578,0.414975,0.0795929,-0.276865,-0.014222,-0.354424,-0.308716,-0.0465452,-0.00629473,0.442248,-0.053003
0.323621,0.0495557,-0.114062,-0.904035,-0.172175,0.147491,-0.404267,0.555667,-0.0717977,0.140054,-0.155266,0.242937,-0.254753,0.37269,0.0365595,-0.142437,-0.27186,-0.277867,0.154433,0.469356
0.459447,-0.00973518,0.302602,-1.12587,-0.0195754,0.272632,-0.308718,0.646627,-0.101648,0.510392,-0.696689,0.576144,-0.247664,0.230013,0.123956,0.045463,-0.557968,-0.240596,-0.0377181,0.253312
0.293886,0.0659809,0.646746,-0.598373,-0.0401951,0.360286,-0.107623,0.31008,0.0929698,0.750992,-0.499433,0.237238,-0.23596,0.309134,-0.0326221,0.0241637,-0.574972,0.04256,-0.0974811,-0.00859989
0.422485,-0.00305213,0.496305,-0.700827,-0.0895849,0.450293,0.00946113,-0.0578052,0.0986308,0.65904,-0.53906,0.000270107,-0.20863,0.146691,0.0676418,-0.0458661,-0.746052,-0.0803986,-0.0286496,0.405382
0.570466,-0.0219285,-0.152794,-0.384823,0.00311408,0.361505,0.166936,0.165477,0.0380632,0.378064,-0.591607,-0.183643,-0.182986,0.0436672,0.192877,-0.0245666,-0.557328,-0.0243492,-0.0902126,0.445203
0.463669,-0.236039,-0.491972,-0.512486,-0.27468,0.109794,-0.0786463,0.300678,0.161835,-0.0219758,-0.263016,-0.443045,-0.287048,0.153534,-0.104716,-0.246861,-0.000934673,0.116236,0.242127,0.46402
0.106329,-0.108491,-0.242516,-0.508748,-0.14373,-0.034404,-0.0588524,0.384581,0.137905,-0.0903392,0.429688,-0.219238,-0.127446,0.418974,-0.194514,-0.132222,0.0924021,0.0714681,0.148762,0.188814
-0.0224553,0.0507724,-0.157177,-0.323549,0.0352586,-0.358828,-0.0614363,0.136527,-0.186589,-0.302718,0.295427,0.105183,0.0052985,0.32877,-0.111717,0.0473806,0.0529566,-0.173819,0.00304052,0.18624
-0.0733522,-0.0635936,-0.363011,-0.11773,-0.12015,-0.489052,-0.302825,0.234081,-0.560404,-0.479207,-0.0339694,0.343311,0.00426255,0.255858,0.033023,-0.00373948,0.138139,-0.266528,0.10044,0.646727
0.0200009,0.0450242,-0.247157,0.188256,0.0208257,-0.121108,-0.00284061,-0.152324,-0.337625,-0.344894,-0.175923,0.350153,0.0181127,-0.14295,0.0035721,0.0408696,0.341829,-0.0198284,0.00761479,-0.0433638
0.20991,0.264354,-0.05792,-0.0235299,-0.0439066,-0.203834,-0.281148,-0.162998,-0.322378,-0.0148523,-0.171623,0.234489,-0.0861346,0.0559676,-0.012896,0.038394,0.0185203,-0.0555819,-0.0380963,0.377467
0.237288,0.501379,-0.119947,-0.137595,-0.0992474,-0.274707,-0.321138,-0.383753,-0.485167,-0.0548104,-0.17767,-0.0422238,-0.220248,0.22739,0.279553,-0.0891521,-0.18585,-0.106015,-0.0139275,0.426963
0.231545,0.348039,-0.0756523,-0.177402,-0.16628,-0.111082,-0.232399,-0.279649,-0.126513,-0.181447,-0.118226,-0.27726,-0.237533,0.245014,0.392006,-0.148498,0.0726319,-0.0628478,0.07617,0.343652
0.178132,0.166319,-0.069006,-0.122479,-0.137776,-0.0878479,-0.0987922,-0.142726,-0.201074,-0.121797,-0.224873,0.011376,-0.0983635,0.0417608,0.284443,-0.0550927,0.00865535,-0.126942,0.0574303,0.159763
0.00503622,0.0978314,-0.0363095,-0.0418901,-0.0574862,-0.00628812,-0.0376381,-0.0451717,-0.0942663,-0.0324341,-0.0794444,0.0002065,-0.0149566,-0.0137483,0.0628766,0.00511408,0.0292022,-0.0573356,0.0129845,9.13338e-05
0.0266586,0.0353549,0.0354258,0.0311195,-0.00295942,0.00335067,-0.0223795,0.0295211,0.000814929,-0.0341881,0.00512852,0.0115416,0.00965102,0.023941,-0.0102067,-0.0116497,0.0303663,0.014028,0.0251419,0.0174788
-0.00881795,-0.0322481,0.0232106,-0.00445507,0.0135678,-0.00538688,0.0180042,0.00897168,0.0336928,0.0115074,-0.0233733,-0.00698674,0.0104559,-0.0265214,-0.0132977,-0.015486,-0.0160625,-0.0128062,0.00759659,0.0163096
-0.0290279,0.000444429,-0.024451,0.0284459,-0.0134614,0.0334557,-0.00102037,0.0149878,-0.0259358,0.00724972,0.0122895,-0.0078071,0.0289388,0.0227579,0.00993812,-0.0319765,0.0201202,0.00952666,-0.0351336,-0.00994421
0.0338999,0.0244738,0.0301623,0.00297343,-0.0129064,0.00613125,0.0287133,-0.00863622,0.0081849,0.0381527,0.00212573,0.0145058,0.0126688,0.0161047,0.0227431,-0.0229694,-0.00229384,0.0165172,0.0150016,0.0190769
0.0452211,0.0331433,0.127181,-0.0457499,-0.00910654,-0.0416094,-0.0746458,0.118509,-0.0100357,0.110259,-0.0309255,0.109447,-0.00798819,0.0459615,-0.032474,-0.012109,-0.0557329,-0.0156475,0.0496262,0.105922
0.0940098,0.0366937,0.080417,0.060861,-0.00124115,-0.138856,-0.122749,-0.0255669,0.00536392,0.10347,-0.00999919,0.132543,0.139408,-0.038476,-0.0211317,0.036882,-0.0250075,-0.047415,0.0455307,-0.0553627
0.0229916,-0.284713,0.0625233,-0.206602,0.015508,-0.00316976,-0.33013,0.328359,-0.00919988,0.0666011,-0.00503817,0.170683,0.065708,0.165836,-0.114234,-0.0871556,0.016651,0.00768434,0.102791,0.100212
0.0418149,-0.343669,-0.0592631,-0.380142,-0.0342585,0.021711,-0.278442,0.489977,-0.0723936,0.0349169,0.0621798,0.39019,0.172194,0.222521,-0.0871184,-0.119745,-0.0676816,-0.0543378,0.187957,-0.0440368
0.111693,-0.465388,-0.0615801,-0.457814,-0.0863501,0.142937,-0.336399,0.548391,0.0128848,0.16482,0.0861913,0.0778694,-0.0935753,0.306206,-0.0703805,-0.204524,0.21681,-0.0131051,0.242894,-0.0974203
0.0463207,-0.380109,-0.186553,-0.341887,-0.145387,0.135346,-0.489408,0.161519,0.0568283,-0.197729,0.0536805,-0.425079,-0.39924,0.463453,0.177036,-0.225133,0.406425,-0.000297465,0.341135,0.201946
0.141426,-0.0788572,0.1707,-0.144469,-0.143335,0.10755,-0.0665895,0.0229356,0.167657,-0.194614,0.00269975,-0.315769,-0.362838,0.0206076,-0.0425407,-0.198821,0.356069,-0.0727125,0.278452,-0.268575
-0.178342,-0.0355264,0.227611,-0.0835456,-0.135363,0.134842,-0.0208786,-0.0966473,0.152107,-0.07874,0.246528,-0.326809,-0.359367,-0.0922519,-0.264382,-0.20132,0.415018,0.0968716,0.264902,-0.190766
0.149407,-0.063514,-0.220631,-0.258559,-0.164898,-0.0130759,-0.224593,-0.0155467,-0.279026,-0.11877,0.098074,0.0686956,-0.25805,0.130267,-0.22511,-0.263629,0.237668,-0.160313,0.314704,0.0180404
0.561386,0.19609,-0.152333,-0.426606,-0.0831428,0.195849,-0.143946,0.158206,-0.512354,0.126253,-0.711391,0.322286,-0.0545905,-0.224737,0.333102,-0.0501067,-0.193148,-0.456619,0.110401,0.0373565
0.293637,0.418545,0.0723619,-0.516717,-0.0136499,0.171993,0.00845976,-0.0751689,-0.374798,0.193609,-0.623536,0.250665,0.0298518,-0.113868,0.565912,0.0206039,-0.526097,-0.250384,-0.0662051,-0.129524
0.528911,0.142939,0.52293,-0.668468,0.0681638,0.250982,0.0134871,-0.197658,-0.427564,0.664035,-0.643267,0.144623,-0.0560872,-0.00626796,0.369111,0.0792406,-0.610041,-0.179097,-0.171258,-0.330553
0.644803,-0.400029,0.380677,-0.547119,0.100013,0.468458,-0.161712,0.0292616,-0.0199013,0.733882,-0.490794,0.141092,-0.0923082,-0.0033338,-0.0776776,0.0205674,-0.409387,-0.140931,-0.0524566,0.231928
0.460852,-0.279334,0.197817,-0.10704,-0.0208034,0.395094,-0.177567,0.231178,0.332892,0.487989,-0.45893,-0.0231533,-0.129682,0.134638,-0.127962,0.0248373,-0.255914,0.124464,-0.0831247,0.346229
0.343793,-0.930878,-0.284885,-0.413341,-0.291495,0.317931,-0.185067,0.436558,0.655169,-0.0176798,-0.0224676,-0.256639,-0.113241,0.172941,-0.546675,-0.289579,0.277685,0.465909,0.362605,0.220235
0.556242,-0.569713,0.196429,-0.762662,0.0330289,0.227772,-0.0807302,0.529374,0.236163,0.163973,0.0108996,-0.0143002,0.129893,0.210088,-0.669526,0.0529777,0.0594816,0.135818,-0.0211198,0.0732193
0.143722,-0.160924,0.208454,-0.282319,-0.0204915,0.170154,-0.083215,0.288159,0.25286,-0.0516088,0.259184,-0.248254,0.0375262,0.394777,-0.371105,0.0570561,0.058023,0.0732186,0.00795279,0.0468403
0.285079,0.0213079,-0.0583717,-0.246332,-0.18035,-0.175729,-0.267018,0.00683716,-0.245187,-0.139381,-0.0560971,0.0349891,0.0376531,0.262361,0.0556553,-0.130188,-0.0144495,-0.114261,0.14979,0.221975
0.225993,-0.040149,-0.280975,-0.183934,-0.126973,-0.200441,-0.396951,-0.0767294,-0.301031,-0.124869,-0.119677,0.397204,-0.106806,0.113997,0.107878,-0.0917332,0.136689,0.0687644,0.0598396,0.271412
0.256459,0.372592,-0.184471,-0.415337,-0.288418,-0.249734,-0.585024,-0.116707,-0.35427,-0.116061,-0.0960554,0.284362,-0.212806,0.443678,0.417015,-0.214792,-0.0313863,0.0480179,0.255092,0.645431
0.168373,0.323418,-0.152133,-0.308214,-0.244709,-0.226955,-0.498929,-0.132874,-0.3771,-0.0578823,0.0554662,-0.0219339,-0.269561,0.387117,0.389102,-0.217213,-0.0992877,-0.0576204,0.191105,0.619548
0.159312,0.325534,-0.0503053,-0.327781,-0.141763,-0.0670316,-0.305374,-0.103065,-0.130013,-0.105154,-0.0234301,-0.206947,-0.259931,0.312234,0.439958,-0.152799,-0.00837584,-0.0840358,0.0663976,0.402847
0.121785,0.194673,-0.0431307,-0.208275,-0.12144,-0.0275165,-0.245865,-0.133115,-0.101808,-0.105732,-0.0786272,-0.21911,-0.193431,0.159404,0.314451,-0.104656,0.0482448,-0.0681718,0.0500622,0.275533
-0.019246,0.0310229,0.012206,-0.00890347,-0.0457121,-0.0166766,0.00618754,0.0114174,-0.0412744,-0.00167784,-0.0469107,0.0104786,-0.0219236,-0.00536977,0.0296814,-0.0340566,0.0011487,0.0307312,0.023118,0.0490403
0.00564564,-0.0173361,0.0171394,0.0141943,0.013659,-0.0114934,0.0342889,-0.0159984,0.0144624,-0.0204573,-0.0150033,-0.0235781,-0.0140392,-0.0273336,0.00624992,-0.0240494,0.0320797,-0.0148994,-0.0176554,-0.0296679
0.00580326,-0.00924366,0.0215744,-0.0340649,-0.0342544,-0.00593299,-0.0327982,0.0116203,0.0172428,-0.0184052,0.0293137,-0.012937,0.00281287,-0.00492572,-0.00733651,-0.0349825,-0.0169705,-0.01585,0.011459,0.0345025
-0.0210765,-0.0599958,-0.021521,-0.0266044,-0.0463318,-0.00778025,-0.0211941,0.00744588,-0.0106801,0.029275,0.0547457,-0.00439115,0.00162817,0.0419204,-0.0537437,-0.00382177,0.0698222,0.00909692,-0.0103024,-0.0276649
-0.00334122,-0.0179081,0.0175993,0.00938116,-0.0252597,0.0320622,-0.0234015,-0.0217751,-0.00937139,-0.0181415,0.0341888,0.0150736,0.0278812,0.0331052,0.0267506,-0.000255134,0.033429,0.0391747,-0.0278345,0.0221347
0.0827102,0.0585515,0.193756,-0.0642928,-0.000580266,0.0596315,-0.111583,0.102644,0.0317412,0.146703,0.0045285,0.0489209,-0.0423814,0.19025,-0.10151,-0.013917,0.110618,0.0350098,0.00976342,0.199586
0.0734871,0.15292,0.21934,-0.0401635,-0.0187571,-0.0341168,-0.200151,-0.0227536,0.0233741,0.0539028,0.0213184,0.0948431,0.0769572,0.19709,-0.111019,0.0329414,0.131201,0.0798839,-0.00025045,0.181081
0.120958,-0.161832,0.298687,-0.352718,-0.0277339,0.0557981,-0.324878,0.189193,0.085876,0.147746,0.0745223,0.28936,0.0748569,0.353891,-0.198308,-0.00872141,0.106956,0.0951378,0.0835893,0.17969
0.0771345,-0.533858,0.0883328,-0.443309,-0.0538888,0.187625,-0.256217,0.406464,0.0744499,0.112154,0.0696511,0.323663,0.04485,0.22207,-0.37842,-0.0914918,0.348684,0.107516,0.126165,0.0687102
0.205557,-0.538573,0.08393,-0.481663,-0.0815111,0.198573,-0.145413,0.303603,0.221399,0.196653,0.116762,-0.0169493,-0.0307618,0.238141,-0.163659,-0.114059,0.289729,0.196465,0.206461,-0.131174
0.236199,-0.0779249,-0.273893,-0.461424,-0.237241,-0.172033,-0.0900174,0.0688809,-0.224622,-0.283372,-0.176865,-0.277848,-0.092046,0.176839,0.188165,-0.261979,0.293102,-0.156466,0.3129,0.0106888
0.104102,0.096783,-0.203573,-0.0467,-0.0432432,-0.304609,0.341274,-0.338502,-0.323459,-0.610637,-0.135239,-0.216675,0.00566464,-0.283718,0.253459,-0.15826,0.166691,-0.281608,0.255101,-0.503828
-0.0172071,-0.445222,-0.11513,-0.2849,-0.0262422,0.0943583,0.0556678,-0.314794,-0.0343878,-0.452711,0.0857605,-0.170099,-0.267445,-0.156557,-0.469125,-0.230705,0.466241,0.0666692,0.235895,-0.384515
0.0883864,-0.629501,-0.525041,-0.342921,-0.175641,0.378522,-0.233655,-0.247052,0.0774547,-0.555618,0.301889,-0.363113,-0.364911,0.118065,-0.377385,-0.316594,0.368626,0.0586621,0.334086,-0.197116
0.201938,-0.195825,-0.116322,-0.372781,-0.0266748,0.34596,-0.125495,0.0147136,0.101843,0.0697673,-0.119876,-0.0576303,-0.210585,-0.0805111,0.0904734,-0.0556934,0.0221211,0.0409861,0.0116858,-0.116066
-0.00442949,0.200972,0.0646921,-0.18304,0.0387131,0.124794,0.00612891,-0.212592,0.00283892,0.0352892,0.0473085,-0.16569,-0.233125,-0.120293,0.456354,0.00634105,0.0657338,0.104556,-0.181306,-0.280636
0.258101,-0.344346,0.489092,-0.595728,0.353871,0.412191,-0.0495678,0.250535,-0.102626,0.689724,0.112559,0.29379,-0.544208,-0.0361268,-0.257436,0.239256,0.186031,0.0985807,-0.356427,-0.112723
0.635309,-0.856401,0.469639,-0.387318,0.178882,0.661245,-0.268355,0.629012,0.010085,0.908327,-0.184278,0.391382,-0.417476,0.0515651,-0.666089,0.00705732,0.358937,-0.20898,-0.191427,0.0339843
0.0859169,-0.878315,0.288894,0.182666,0.0502748,0.495709,-0.325079,0.612593,0.646519,0.337185,0.319146,0.233283,-0.237237,0.0615832,-0.939886,-0.0466874,0.516589,0.123682,-0.0917191,0.0945302
0.128107,-0.919404,-0.0914836,-0.195769,-0.271249,0.509655,-0.194054,0.530743,0.666657,-0.157268,0.506765,-0.171541,0.00505092,0.264024,-0.62089,-0.270961,0.473553,0.396647,0.291871,0.129019
0.695988,-0.380795,0.462133,-0.876066,-0.0254591,0.379818,-0.177865,0.614037,0.352142,0.350003,-0.0578288,-0.0528971,0.113794,0.20121,-0.364091,0.0577033,-0.353889,0.15207,0.0401337,0.120815
0.344727,-0.2767,0.14605,-0.770015,-0.327922,0.238771,-0.0812691,0.0865215,0.279771,0.141292,0.163049,-0.239147,0.0823443,0.433107,-0.119728,-0.219512,-0.16039,0.189494,0.269503,-0.157993
0.259453,-0.0385053,0.137441,-0.657974,-0.287549,-0.00974372,-0.290513,0.173682,-0.0802652,0.471419,0.0865933,0.01278,-0.102268,0.309225,-0.113175,-0.194666,-0.0339925,0.18422,0.212318,0.0654702
0.201465,-0.0120771,-0.102408,-0.575758,-0.28422,-0.256789,-0.410996,-0.0063075,-0.277405,0.112917,-0.105558,0.356721,-0.149082,0.320484,0.0931165,-0.280844,-0.0739426,0.192012,0.284738,0.374229
-0.0399768,0.379123,-0.167709,-0.505286,-0.30697,-0.202115,-0.382948,-0.210394,-0.267312,-0.121931,0.0775236,0.033341,-0.236032,0.553237,0.388193,-0.270457,-0.0551144,0.156722,0.287651,0.470622
0.0181738,0.365681,-0.179499,-0.425775,-0.136501,-0.215942,-0.270933,-0.0647363,-0.308515,-0.164326,-0.016646,-0.228961,-0.156179,0.359487,0.506542,-0.125156,-0.111374,-0.0882533,0.152442,0.373024
0.0947299,0.328549,-0.043918,-0.389614,-0.112307,-0.113447,-0.217077,-0.0393136,-0.216674,-0.11422,-0.0960148,-0.233797,-0.153059,0.285791,0.322647,-0.0661539,-0.0460143,-0.0600752,0.0654903,0.311321
0.0563985,0.0942867,-0.0372247,-0.160535,-0.0585436,-0.0658611,-0.0791036,-0.0131494,-0.15422,-0.0249874,-0.108828,-0.0103223,-0.0276043,0.0503061,0.115459,-0.0174638,-0.0825754,-0.0790827,0.0155834,0.100529
0.00269919,0.0306378,-0.0094012,0.0178945,-0.0335175,0.01051,0.0148178,-0.00179699,0.015457,0.0068253,-0.0261021,-0.0295229,-0.00874474,-0.000205349,0.000333419,0.0229304,0.00763399,0.00392527,-0.0197985,0.0341605
-0.00581582,-0.0167893,0.019062,-0.0191077,-0.0279965,0.0193387,0.0343934,-0.0126805,0.0129888,0.0263731,-0.0179471,0.0318149,0.00429733,-0.0281673,-0.0231936,0.0072175,-0.0313264,0.0332679,-0.0224848,0.0329184
0.0190839,-0.0113357,-0.0225735,0.0262357,0.0312556,0.0312355,-0.000167228,-0.0139735,0.0264567,0.00709019,-0.0106063,-0.0176944,-0.0192645,0.0157189,0.000218525,0.0311538,-0.00203607,0.0309259,-0.00454665,0.029208
0.0161182,0.000223738,-0.0191485,-0.0171201,-0.0334673,0.0357939,0.0120002,-0.0176062,0.0228612,-0.00923248,-0.0178971,0.0306137,0.0100422,0.0248427,-0.0341231,0.0284082,0.03856,0.000172316,0.0301049,0.0215407
0.035542,0.00158137,0.000517443,0.030791,0.0213644,-0.02765,0.0329886,0.00705788,-0.00771199,-0.0297679,0.0031824,-0.0279132,0.0258008,-0.0197495,0.0185294,0.0188689,-0.034624,-0.017125,-0.00440596,-0.0325336
0.0477778,0.0966017,0.207826,-0.0302397,0.0172186,0.0215715,-0.162369,0.165176,-0.00353825,0.140746,0.000482245,0.0327952,-0.0182595,0.146745,-0.13262,0.0316766,0.200313,-0.000682531,-0.00449601,0.260719
0.157586,-0.0328328,0.274609,-0.28314,-0.0342371,0.075103,-0.0913998,0.0192863,0.115155,0.268555,0.0911683,0.145703,-0.00255832,0.194986,-0.17042,0.0198812,0.201972,0.0807821,0.0621266,0.155734
0.172915,-0.203928,0.20509,-0.379162,0.0128169,0.217263,-0.0781214,0.0430095,0.177326,0.251651,0.160663,0.207977,0.00898023,0.175119,-0.25418,-0.0253797,0.245061,0.0909944,0.0257251,-0.0148207
0.187502,-0.409305,0.131778,-0.434813,-0.0102741,0.124032,0.0193535,-0.102257,0.125207,0.279784,0.105136,0.158206,0.0304951,0.14182,-0.301649,-0.0486942,0.17522,0.152813,0.0230927,-0.150064
0.277058,-0.155372,0.0815796,-0.319691,-0.0298286,0.0507101,0.108901,-0.467852,0.111481,-0.00473177,0.0627132,-0.189588,0.0722565,0.170086,0.0997308,-0.0635871,0.059975,0.127765,0.0443898,-0.206351
0.159328,0.0922467,-0.0953747,-0.258587,-0.0702564,-0.160173,0.275467,-0.525899,-0.186437,-0.341428,-0.120986,-0.252448,0.163267,0.0881809,0.109234,-0.0657196,0.107615,-0.128033,0.0949265,-0.248665
-0.296198,-0.158537,-0.586681,0.010496,-0.034329,-0.415302,0.513387,-0.519335,-0.509311,-0.945146,0.157224,6.26454e-05,-0.0225841,-0.178883,-0.052864,-0.139095,0.313251,-0.448355,0.171609,-0.439792
-0.110891,-0.402427,-0.379588,-0.48709,-0.139972,0.067568,0.106191,-0.327268,-0.138735,-0.461371,0.388917,-0.440176,-0.483083,0.257386,-0.477538,-0.304775,0.154381,0.168028,0.252795,-0.1615
0.045779,-0.0158276,-0.141681,-0.50659,-0.0975013,0.518745,0.054925,-0.210989,0.180256,-0.0780713,0.413572,-0.881953,-0.513116,0.394884,-0.266609,-0.14896,0.0528362,0.283904,0.0824795,-0.228391
0.0520147,0.0287506,-0.00264302,-0.261953,-0.00258234,0.251752,0.234483,0.0872533,0.27489,0.181973,0.0672018,-0.56541,-0.213854,0.186881,0.0787504,-0.0361798,0.0914514,0.170981,-0.0937051,-0.261991
-0.141264,-0.01129,0.00865505,-0.379682,0.077088,0.0954552,-0.0380567,0.274214,0.34059,0.169792,0.489694,-0.359852,-0.685825,0.312317,0.139967,-0.00612866,0.844224,0.374662,-0.119286,-0.112529
0.32368,-0.0650401,0.52711,-0.291945,0.451254,0.124564,-0.0307433,0.0331443,0.0655914,0.475378,0.0743567,-0.0594657,-0.770201,0.331862,-0.162306,0.299058,0.557063,0.205257,-0.443645,-0.0340596
0.624139,-0.108791,0.845758,-0.292991,0.280675,0.329571,-0.313124,0.304579,0.142615,0.77414,-0.223292,0.495239,-0.599122,0.210357,-0.319279,0.216861,0.299894,-0.195695,-0.380127,0.157877
-0.0798941,-0.434549,0.499368,0.248217,0.0996115,0.240304,-0.394055,0.498484,0.620524,0.225056,0.540652,0.597077,0.0354627,0.0874204,-0.691937,0.0524554,0.541733,-0.00755869,-0.176692,0.153109
-0.0715888,-0.5105,0.136754,-0.11244,-0.0797925,0.374842,-0.290671,0.578146,0.35817,0.202331,0.582667,0.247053,0.235847,0.027881,-0.664823,-0.0417673,0.187258,0.116737,0.0710614,-0.0331203
0.437509,-0.235932,0.236372,-0.564307,-0.344808,0.469922,-0.0839549,0.513296,0.175681,0.383272,0.181493,0.322508,0.224851,0.284829,-0.243852,-0.212352,-0.502971,0.125109,0.212039,-0.139549
0.24145,-0.565049,0.225434,-0.58565,-0.264265,0.356446,0.0708198,0.137773,0.390684,0.474204,0.267594,0.107839,0.105131,0.36229,-0.473205,-0.202935,-0.0985643,0.388247,0.231685,-0.494233
0.00232121,-0.515706,0.0119566,-0.388601,-0.399059,0.0503724,-0.0235533,0.346333,0.220105,0.54899,0.525974,0.20392,0.0152734,0.178753,-0.505581,-0.309937,0.26802,0.402767,0.357243,-0.263812
-0.0599255,-0.263935,-0.0683758,-0.260894,-0.271934,-0.041179,-0.15322,0.166907,0.14729,0.113963,0.181288,0.154561,0.016889,0.229234,-0.3309,-0.2059,0.10626,0.294027,0.27717,0.00159459
-0.146298,0.0542714,-0.125761,-0.178315,-0.117215,-0.0524951,-0.230212,0.020156,0.00924935,-0.0617095,0.286047,-0.184557,-0.107714,0.308845,-0.00343677,-0.168722,0.0887581,0.2179,0.121037,0.165957
-0.0828377,0.123188,-0.0149372,-0.173464,-0.107209,-0.03487,-0.150336,0.0929591,-0.081149,-0.0724281,0.305198,-0.115359,-0.0609387,0.315866,0.136959,-0.1128,-0.184383,0.0881249,0.0825034,0.201889
-0.057813,0.00356207,-0.0425477,-0.092647,-0.0259621,-0.0391418,-0.0848121,0.0376652,-0.0168443,-0.0270631,0.15516,-0.0390405,-0.0447177,0.167712,-0.0121185,-0.0133443,-0.044663,0.0540444,0.0846805,0.100381
-0.0301649,-0.0264595,-0.0167517,-0.0332338,-0.0427411,-0.0185924,0.00915894,0.0263857,0.00913448,-0.0377786,-0.00839264,-0.0111824,0.0111765,0.0264172,0.0346136,0.00468263,0.021014,-0.0253216,0.0447958,0.015595
-0.0112501,-0.0347781,0.0319262,-0.0013287,-0.0449643,0.0111766,-0.0222685,-0.0313297,0.0304991,0.0178543,0.0298908,0.00332186,0.00322393,0.0224061,0.0131362,0.0228933,0.00483082,-0.00264794,0.0247521,-0.0182264
-0.0354152,0.0336692,-0.025655,-0.00164013,0.0326834,0.0100994,-0.0304566,0.0220147,-0.0173542,0.000749805,-0.0259392,0.0212423,-0.0325656,0.0228191,0.024324,-0.00724324,-0.0331337,-0.0265203,-0.0324451,-0.0230049
0.00492086,-0.00956399,0.0156741,-0.0136136,-0.00276768,0.00452058,-0.0292426,0.0125465,0.0255382,0.0154458,0.0209827,-0.0300507,-0.012288,0.0247456,0.0348176,-0.00694697,0.0338491,0.00900845,0.0278479,-0.0343308
0.031344,0.0313161,-0.0114476,-0.00698173,-0.0285311,-0.0132392,-0.0327515,0.00260766,0.00998714,-0.00335915,-0.0322343,0.0118383,0.0293257,-0.0276501,-0.0250989,0.0206971,-0.0201945,0.0327165,0.0220843,-0.0277622
-0.0055167,-0.0188344,0.0291213,0.0149665,-0.0310274,-0.00627617,-0.0317775,-0.02638,0.0313488,-0.00859143,-0.00817206,0.0173429,0.007446,0.030366,-0.0345839,0.0356886,-0.0287458,-0.0289667,-0.0192156,-0.0258008
0.014362,0.0301216,0.0641561,-0.0165036,-0.011648,0.0420576,-0.0553921,0.046412,0.0473102,0.0331157,0.0221853,-0.0577889,-0.0453393,0.0384231,-0.189469,-0.0140192,0.210273,0.0339883,-0.00790892,0.0954423
0.151277,-0.112996,0.126932,-0.188677,-0.0287874,0.0931741,0.0123451,-0.0427412,0.112685,0.239084,0.0887623,0.0886072,-0.0555907,0.0944092,-0.211008,0.0126971,0.214008,0.0595407,0.02185,0.00521359
0.0893984,-0.233666,0.037089,-0.23683,0.0186358,0.103801,0.0382022,-0.0864323,0.100402,0.193786,0.180179,0.109887,-0.0517284,0.0588967,-0.259624,0.00544862,0.216245,0.0593139,0.0249554,-0.168054
0.192886,-0.178617,0.0634138,-0.26211,-0.0284421,0.0717072,0.135643,-0.307231,0.0424848,0.0798913,-0.0360715,-0.00590287,0.0369885,0.104865,-0.0476459,-0.0464768,0.00987715,0.0966086,0.0175226,-0.236833
0.035383,-0.11664,0.106861,-0.05059,-0.0169954,0.0801755,0.138881,-0.583585,0.0821617,-0.119815,0.0846773,-0.356709,0.180675,0.19039,-0.0229221,-0.0530898,0.103388,0.0667599,0.0306371,-0.159669
-0.0569901,0.221834,0.0604996,-0.0249204,0.0315448,0.184448,0.325373,-0.741878,0.110191,-0.325003,-0.0955973,-0.449639,0.137175,0.107891,0.0737299,-0.120962,0.0104144,-0.115743,0.0127927,-0.393621
-0.370825,0.102243,-0.287194,0.0377278,-0.113326,0.0679796,0.321653,-0.717164,0.10788,-0.43398,0.23415,-0.390885,0.0792632,0.271597,-0.104111,-0.195418,-0.157838,0.046856,0.152596,-0.297597
-0.117551,0.0886397,-0.13467,-0.410031,-0.185046,0.275275,0.277666,-0.556066,0.0989207,-0.137883,0.205434,-0.558435,-0.272788,0.469133,-0.326565,-0.306188,-0.174623,0.296732,0.188325,-0.273788
-0.120543,0.566498,-0.156857,-0.296766,-0.0160011,0.1514,0.527571,-0.787073,0.0207405,-0.175658,0.154725,-0.828064,-0.130869,0.316301,0.114917,0.0232289,-0.196208,0.234499,-0.129424,-0.399507
-0.0155813,0.703659,-0.17312,0.00158136,-0.0831831,-0.0910279,0.491409,-0.612339,0.0134269,-0.465541,0.0120352,-0.785141,-0.137047,0.392544,0.640062,-0.0692569,0.0860806,0.0317977,-0.0598902,-0.30151
0.0716902,0.396339,0.268322,-0.218203,0.139066,-0.0688223,0.360769,-0.216615,0.0655952,0.0342086,0.0891235,-0.371227,-0.40016,0.524957,0.408695,0.0870983,0.206279,0.152024,-0.0945856,-0.518705
0.308401,0.366992,0.956141,-0.191675,0.196113,0.00765588,0.0428604,0.0500096,0.0479807,0.581896,-0.402182,0.248668,-0.546742,0.520854,0.0125149,0.244287,-0.266159,-0.0381894,-0.151032,-0.207876
0.588057,0.731163,0.917936,-0.0826879,0.195377,-0.106968,-0.152492,0.0189973,-0.216132,0.712525,-0.497238,0.698461,-0.219866,0.0577955,0.16362,0.199061,-0.457852,-0.329898,-0.315308,0.114008
-0.222366,0.0407057,0.479789,0.470361,0.153685,0.184616,-0.170467,0.00850389,0.571409,0.157571,0.4821,0.491714,0.152967,0.145964,-0.482438,0.0896507,0.00271451,0.0849921,-0.163148,-0.150041
-0.0661681,0.203449,0.298627,0.167541,-0.0864736,0.51633,0.13552,0.111542,0.577505,0.334929,0.382945,0.361843,0.525689,0.278047,-0.147117,-0.0197926,-0.51934,0.471453,0.0259624,-0.453715
0.373088,-0.180912,0.384529,-0.446373,-0.358034,0.402282,0.129375,0.402724,0.252663,0.627014,0.0298325,0.547713,0.401599,0.285941,-0.175657,-0.157394,-0.706752,0.228891,0.241659,-0.428725
0.103664,-0.713982,0.125745,-0.363341,-0.424865,0.150344,-0.0443048,0.549592,0.31856,0.492077,0.354128,0.417267,0.192041,0.164724,-0.555267,-0.330767,-0.0256293,0.373651,0.451296,-0.34785
0.000768439,-0.545672,-0.00944473,-0.198176,-0.341564,0.0599805,0.163719,0.470313,0.239685,0.368089,0.276188,0.0817809,0.15905,-0.123117,-0.518278,-0.325686,0.185064,0.214709,0.388407,-0.515801
-0.0906484,-0.291549,-0.00918164,-0.140549,-0.106312,0.038354,-0.0756471,0.278821,0.171041,0.186903,0.114171,-0.103532,0.0792915,-0.0121412,-0.462175,-0.116406,0.0178009,0.175377,0.110387,-0.0798511
-0.189061,-0.0513513,-0.0162383,-0.139889,-0.0982974,-0.090102,-0.113242,0.128111,-0.0575601,-0.0411538,0.30863,-0.118757,0.052082,0.0945616,-0.110179,-0.0670888,-0.0825146,0.0133442,0.0719945,0.119202
-0.203134,-0.0265699,-0.0519513,-0.105555,-0.0360565,-0.0302432,-0.091182,0.0711015,-0.106982,-0.0857845,0.250433,-0.0354509,-0.0721553,0.181357,-0.063801,-0.0645744,-0.0846892,0.0701249,0.0767115,0.123046
-0.155259,-0.0604499,-0.027957,-0.0081793,0.00267414,0.0176302,-0.0411225,0.0403897,0.00912864,-0.0508751,0.150871,-0.0692858,-0.0396298,0.0846551,-0.0844947,-0.0205988,0.0663004,0.0464683,-0.0119053,0.0688791
-0.0203379,0.00360703,-0.0269342,-0.00069651,0.0146792,-0.00300408,-0.0272707,0.0305073,-0.032349,-0.00767366,-0.000181332,0.0330865,-0.00896133,0.0235271,0.00319229,0.00974094,-0.0355836,0.0128851,0.0136871,0.0102355
-0.0656652,-0.00330872,-0.0111874,-0.026682,0.0212961,-0.00652442,-0.0496149,-0.033812,-0.00170594,0.00116874,0.053013,-0.00884383,-0.0308361,0.0296783,0.0194733,-0.0065609,-0.0324214,-0.00364533,-0.0347368,0.01616
-0.0142165,0.00470007,0.0289832,0.0102759,0.00876812,0.0337584,-0.0108243,0.00537618,0.00389226,-0.0225406,0.0203081,-0.0329752,-0.0137262,-0.00525218,-0.0238603,-0.00528749,-0.0353558,-0.0355774,0.0337583,-0.00953348
0.00346132,0.0162421,-0.00242491,0.031825,-0.031846,0.0209467,-0.0231073,0.0214529,0.0120945,0.015351,0.00761229,-0.0128412,0.0356831,-0.024881,-0.00119566,0.00236383,0.0328257,0.00939068,-0.0189715,0.0334812
-0.0032119,0.0098228,-0.00745104,0.0199415,0.0248289,-0.0243009,-0.0120029,-0.0300568,-0.00817468,0.00658434,0.00720064,0.0324745,0.0077646,-0.00241505,0.000692228,-0.00987562,0.0104171,0.0171479,0.00904628,0.00322009
-0.0139173,0.00265497,-0.032386,-0.0270785,0.00573722,0.00814346,-0.00556668,-0.00832337,0.0222523,0.0139235,0.0300831,0.0239813,-0.0105776,-0.0181474,-0.0352505,0.0231836,-0.0327752,-0.0263834,-0.0344011,0.00317593
-0.0291509,-0.0525343,-0.0335906,0.0203685,-0.000217186,0.0175576,-0.0247702,-0.0643439,0.0502353,0.00967545,0.0439002,-0.0978568,-0.0509701,0.0430466,-0.113161,0.0293977,0.170769,0.0181953,-0.0249714,0.0147433
0.0521634,0.0400872,0.0412628,-0.0368203,0.0300693,0.0815907,0.0716551,-0.155834,0.0797224,0.0222679,0.0962564,0.0147602,-0.00141825,0.0551388,-0.10243,-0.0268007,0.239985,0.090911,0.00040957,-0.101448
-0.0746866,-0.119448,-0.0846252,0.0709221,0.0070745,-0.0518042,0.0727787,-0.067322,0.0801329,-0.072478,0.256937,0.0323186,0.0116562,0.048048,-0.300417,0.00482586,0.301876,0.0412351,-0.00222057,-0.117597
-0.0112102,0.0888127,-0.0652725,0.0859349,0.0277288,0.0577547,0.200554,-0.397623,0.0101934,-0.154913,0.0427992,-0.180671,0.173254,0.127157,0.0741652,-0.0368594,-0.0359156,0.115802,-0.00233628,-0.167257
-0.125253,0.225027,0.263106,0.230072,0.0379438,0.269453,0.206166,-0.689633,0.124219,-0.138484,0.0152571,-0.534597,0.228432,0.259634,0.0913781,0.039197,0.0117373,0.124574,-0.134335,-0.182528
-0.143437,0.488392,0.352938,0.131964,0.0711857,0.285622,0.231023,-0.617154,0.25503,-0.0884427,-0.0884797,-0.497196,0.195256,0.293187,0.142214,-0.0117856,-0.188545,0.121947,-0.0576473,-0.324323
-0.528091,0.348578,-0.0728425,0.291859,-0.0469537,0.236086,0.349726,-0.358684,0.43181,-0.114508,0.416114,-0.401073,0.129104,0.22799,-0.233323,-0.153791,0.0445782,0.161469,0.0711222,-0.238552
-0.61266,0.555272,-0.353683,-0.0649124,-0.235698,-0.0212388,0.166496,-0.435697,0.296321,-0.346703,0.573787,-0.422664,-0.0919068,0.635122,0.0193323,-0.312509,0.105832,0.242644,0.248261,-0.0158927
-0.785004,0.750425,0.0299859,0.106882,-0.254143,-0.0167539,0.121769,-0.610575,0.196037,-0.169361,0.452197,-0.510104,-0.225374,0.491823,0.428709,-0.179377,0.0198798,0.323741,0.161353,0.0876466
-0.198892,0.95294,0.179528,-0.0847657,-0.27395,-0.268876,0.121754,-0.723578,-0.194927,-0.448945,-0.113502,-0.394464,-0.348686,0.595603,0.918426,-0.173695,-0.491957,0.0578912,0.238423,-0.0155066
0.151365,0.695686,0.404149,-0.120209,0.100437,-0.445553,0.118141,-0.350851,-0.436861,-0.0247082,-0.416703,0.201479,-0.353895,0.683961,0.580855,0.137221,-0.767605,-0.21076,-0.0746285,-0.0176527
0.442433,0.942922,0.54923,0.189034,0.355098,-0.48557,0.409282,-0.574081,-0.44609,-0.0275285,-0.829791,0.467431,-0.0649292,0.149713,0.36462,0.406176,-0.854495,-0.542608,-0.362417,-0.203658
0.660181,1.08271,0.657138,0.324669,0.27082,-0.499353,0.406804,-0.570768,-0.455138,0.292164,-0.633873,0.743184,0.303681,-0.104106,0.325645,0.254409,-1.01529,-0.338212,-0.408565,-0.28922
-0.00334407,0.560877,0.253375,0.347688,-0.0586982,0.0213998,0.193925,-0.538186,0.464071,0.0410803,0.220889,0.140579,0.172313,0.168653,0.0456312,-0.0593987,-0.359475,0.325211,-0.00230593,-0.414735
0.190621,0.436858,0.0593168,0.017595,-0.191447,0.381225,0.21377,-0.0626284,0.464655,0.299889,0.0170213,0.0498985,0.388157,0.223863,0.195985,-0.14004,-0.590707,0.341022,0.213618,-0.355159
0.510264,0.142521,0.138217,-0.390519,-0.468744,0.324532,0.147133,0.142701,0.155141,0.427784,-0.35578,-0.00471709,0.363007,0.322362,0.287643,-0.381444,-0.825931,0.205109,0.447485,-0.392541
0.322134,-0.137754,-0.00781159,-0.210881,-0.419193,-0.0362146,0.0439639,0.321379,0.0328006,0.301498,-0.0683723,0.0563743,0.306868,0.216092,-0.046298,-0.354285,-0.302987,0.0965875,0.433276,-0.272681
-0.119363,-0.54044,-0.0734531,-0.0658867,-0.215495,-0.0882501,0.00272387,0.466811,-0.0258413,0.278641,-0.0168172,0.0800581,0.194822,-0.309574,-0.624581,-0.223883,0.139915,-0.0896888,0.28751,-0.0964085
-0.121465,-0.195759,-0.0288782,-0.092012,-0.0514531,-0.0765993,0.0475349,0.206283,-0.030372,0.0882441,0.100299,-0.118686,0.140746,-0.098828,-0.406273,-0.0657173,0.0774747,-0.0746382,0.0550119,0.0216136
-0.0538214,-0.0738385,-0.0105206,-0.167286,-0.0327479,-0.0366202,0.0313803,0.0929658,-0.0709204,-0.0886586,0.362696,-0.16017,-0.0291934,-0.0011977,-0.174746,-0.00831271,-0.0914752,-0.049038,0.00522677,0.00909576
-0.147331,-0.0896301,-0.0708262,-0.138927,-0.059582,-0.0311891,-0.00983714,0.108307,-0.00712305,-0.153467,0.347236,-0.144714,-0.128396,0.153188,-0.133889,-0.0732573,-0.0659701,0.0629693,0.00228149,0.0657934
9.24991e-05,-0.0566437,-0.0559605,-0.0880205,-0.0225868,-0.0223321,-0.0365735,0.0350048,-0.0637731,-0.0521984,0.0540113,-0.00121707,-0.0147196,0.0909176,-0.0505427,-0.0338803,-0.0390609,-0.0373171,-0.00330925,0.0845264
0.000182465,0.0187173,-0.0398206,0.0286328,0.000792811,-0.0128684,-0.0158091,0.0252096,-0.0378048,-0.0237325,-0.0212463,-0.0208283,0.031454,-0.0386952,0.00458798,0.0023669,0.0279496,-0.0298532,0.00335027,0.0145278
-0.0195385,-0.032782,-0.0368957,-0.0100916,0.00723123,-0.0255271,-0.0474427,-0.0293604,0.0303312,0.00331099,0.0362603,-0.023036,-0.0164747,0.0278867,-0.00188542,-0.0194487,-0.0157716,-0.0131789,-0.0346384,0.030756
-0.00403998,-0.00523284,0.0265157,-0.022638,-0.0206171,-0.00520141,0.0146105,0.0122653,-0.00108128,0.00248797,-0.00630669,0.0314204,-0.0083018,-0.0224372,-0.0207535,0.0234232,0.00649687,0.00396329,-0.0147775,0.0192132
-0.024144,-0.0055613,-0.0201661,-0.00896548,-0.0154553,-0.0332929,-0.00640302,0.0224696,-0.00943936,0.0249528,0.0178757,-0.0245022,-0.0180033,-0.0193234,-0.02506,-0.019913,0.0298177,0.0317656,-0.0250545,-0.0341471
0.0120477,0.0219571,-0.0016528,0.00132468,-0.00715982,0.0145434,-0.0346955,-0.0286216,-0.00893151,-0.00177434,-0.0178129,0.00418844,-0.0108045,0.0108748,-0.00670178,0.00972435,-0.0132809,0.00372307,-0.0336917,-0.0306187
0.0149919,0.0290524,0.0177025,0.0212948,0.0238063,-0.0092543,-0.0326983,-0.0144416,-0.0363404,0.0146843,-0.0177639,0.0339604,0.012192,0.0075938,-0.00992629,-0.0176149,0.00818739,0.00410682,-0.0167023,-0.0210008
0.0362713,-0.00205034,0.00565702,0.0337219,-0.0112748,0.0305864,0.016025,-0.0991724,0.00839916,0.00243547,0.0132507,-0.0889507,-0.0170896,-0.00278551,0.0512023,0.0198475,0.0222473,0.0382386,-0.00715718,-0.021284
-0.0163168,-0.0405523,0.011929,0.0789013,-0.0224372,0.100801,0.029794,-0.186992,0.146219,-0.000192934,0.119373,-0.141534,0.0138614,0.037641,-0.0337854,0.034937,0.193382,0.0915592,0.0191315,-0.118558
-0.236625,-0.19231,-0.0695107,0.124878,-0.017361,0.0203654,0.0102022,-0.0022479,0.101603,-0.027631,0.3221,-0.11966,-0.131256,0.163452,-0.329679,-0.0501987,0.389542,0.111346,0.00496139,-0.0553253
-0.300748,-0.0735049,-0.0681012,0.209057,0.00886796,0.0179476,0.157684,-0.303445,0.050259,-0.175962,0.30153,-0.199617,0.0846994,0.145937,-0.0859712,-0.0126064,0.127604,0.10988,0.0294851,-0.0403354
-0.185331,0.198657,0.183062,0.198385,-0.0559927,0.120436,0.128029,-0.259272,0.199316,-0.160168,0.0843789,-0.393293,0.218617,0.305151,0.114937,-0.0440041,-0.029192,0.164255,0.0255152,-0.0983435
0.0558257,0.483193,0.288208,0.0895532,-0.0845106,0.228451,0.0251354,-0.269741,0.433691,-0.039443,-0.0243135,-0.530517,0.219987,0.332601,0.185359,0.00585904,-0.150834,0.313239,0.0651703,-0.136822
-0.0138695,0.839632,0.0395196,0.081852,-0.140756,0.148711,0.0415078,-0.256831,0.486917,-0.212625,0.159801,-0.722266,0.144932,0.412036,0.241853,-0.0999125,-0.192137,0.345733,0.197078,-0.0514705
-1.1615,0.802506,-0.661968,0.411204,-0.332428,-0.287134,-0.358161,-0.121402,0.302467,-0.522245,0.775409,-0.757946,-0.0880802,0.552225,0.376307,-0.320563,0.356354,0.225634,0.338938,0.455715
-0.921581,0.917004,-0.603318,0.240558,-0.29379,-0.439332,-0.303108,-0.472932,-0.0484937,-0.534273,0.293296,-0.422132,-0.167677,0.406935,0.906232,-0.234607,-0.00952356,0.177723,0.303099,0.514314
-0.496624,0.876452,-0.29386,-0.170559,-0.356886,-0.524364,-0.412239,-0.380076,-0.37503,-0.475639,-0.20876,-0.30855,-0.306339,0.453868,0.988733,-0.204766,-0.196996,0.0823376,0.33505,0.663929
0.127722,0.824395,-0.0159296,0.0236139,0.195522,-0.637085,0.360138,-0.795584,-0.59295,-0.36419,-0.775423,0.0603748,0.0243675,0.184354,0.873652,0.275074,-0.783141,-0.327134,-0.260735,0.0180112
0.712949,0.967993,0.448261,0.221981,0.517611,-0.470191,0.630798,-0.851425,-0.417956,0.00266859,-1.21384,0.292457,0.389754,-0.0613509,0.44963,0.442548,-0.926562,-0.48831,-0.443978,-0.112671
0.605434,0.832355,0.652838,0.199338,0.131216,-0.0662322,0.647731,-0.940187,0.0400519,0.158039,-0.435848,0.114553,0.41483,0.06966,0.526602,0.140591,-0.710468,0.00621204,-0.207526,-0.320281
0.15228,0.538739,0.311496,0.0644708,-0.0630295,0.0944676,0.385978,-0.722036,0.260007,0.104475,0.0857683,-0.2045,0.18375,0.407917,0.414931,-0.0468531,-0.304333,0.324453,0.0156858,-0.353475
0.21417,0.479136,0.00446772,-0.139714,-0.369307,0.356425,0.0640631,-0.108436,0.253319,0.24217,-0.0902719,-0.177972,0.306585,0.556002,0.681502,-0.245467,-0.475477,0.188577,0.356803,-0.119174
0.123928,0.666716,0.0618592,0.015776,-0.337242,0.158559,0.149942,-0.109034,0.191497,0.216868,-0.066907,-0.409214,0.300703,0.0800655,0.658377,-0.231795,-0.484794,0.0621002,0.351896,-0.251515
0.0277564,0.0751328,0.0663293,0.22687,-0.143763,-0.0100585,0.0253346,0.288851,0.00512847,0.321309,-0.197247,0.0498536,0.287946,-0.162396,-0.159608,-0.172293,-0.263957,-0.16388,0.206967,-0.0850966
-0.495833,-0.391397,-0.151358,0.300891,-0.108247,-0.0682908,-0.0661464,0.403661,0.081413,0.202628,0.163239,-0.0969063,0.0543686,-0.373401,-0.737207,-0.17072,0.575811,-0.0723596,0.162611,0.0207305
-0.41463,-0.0449451,-0.14434,0.141715,-0.0588307,0.0171934,-0.0626594,0.141194,-0.017332,-0.145379,0.347732,-0.201656,0.0319846,-0.0727667,-0.361236,-0.117769,0.353275,-0.0474025,0.0708597,0.0739815
-0.166241,-0.118386,0.00664921,-0.082473,-0.00372714,0.0473516,0.00991318,0.0710213,0.0131944,-0.138058,0.55184,-0.273546,-0.0255487,0.16979,-0.192945,-0.0175552,-0.0742634,0.0675211,0.0632841,0.0365376
-0.0982913,-0.0806448,-0.0890259,-0.112779,-0.0136858,-0.0340765,0.111766,-0.0196144,0.000302549,-0.148062,0.323784,-0.0805025,-0.00670836,0.0537946,-0.0992522,-0.0287405,-0.0656612,0.00891496,0.0327906,-0.135826
0.148384,0.019789,-0.0332283,-0.104335,0.00445548,-0.0712323,0.0123434,-0.00580846,-0.0786815,-0.0387063,0.0246578,0.0516981,-0.026161,0.102354,-0.0358217,-0.0103271,-0.158709,-0.0145707,0.0388291,0.0423867
0.0435749,-0.0278356,-0.0160141,0.0287254,-0.0126848,-0.0252832,0.0193247,-0.017478,-0.0310545,0.00476375,-0.107082,0.00863587,0.0336301,-0.0431586,0.0187309,0.0307229,-0.0439346,-0.0232702,-0.0331746,0.00713529
-0.00974072,-0.00494282,-0.00702467,-0.0121812,0.0128189,0.013744,-0.020931,-0.0336416,0.00836982,-0.000224986,0.021239,-0.0271978,0.0249655,-0.00799099,-0.00724718,0.0102387,-0.0330151,0.00756706,0.0161908,-0.00201694
-0.0241489,0.0304865,0.00626665,0.0303585,-0.0199962,0.0162821,0.0102705,0.0103813,-0.00385769,0.0237806,0.0109752,0.00326454,-0.0196736,-0.0176637,0.0340912,0.0348424,0.0214904,0.00901693,0.0315058,0.0341609
-0.0198744,0.0230311,-0.00549642,0.0182819,0.0238752,-0.0321989,-0.00646649,-0.0192745,-0.0253675,0.0343482,0.00776541,-0.000603891,0.0112478,-0.0105523,-0.0157766,-0.00174574,-0.0169312,-0.0229673,0.00447199,-0.0265602
-0.0345405,0.00904172,-0.00290303,0.0146212,-0.0156507,0.0293156,-0.0194722,-0.0278635,0.00207492,-0.0180492,-0.0135349,-0.0143444,-0.0268315,-0.0212503,0.0322354,0.026514,-0.0134694,0.0225967,0.0172514,-0.027671
0.00752545,-0.0104607,-0.00293191,-0.0279938,-0.00489904,-0.0246336,-0.0108333,-0.0130676,0.0307753,-0.00944573,-0.0310458,-0.00102939,0.00773889,-0.00438662,-0.0223766,0.0225513,-0.00772704,-0.0227341,-0.018986,0.0176598
0.0252323,0.00586758,0.00548853,0.0216701,-0.0266927,-0.0189352,0.0335996,-0.141179,0.0411669,0.0308277,0.0130209,-0.0760879,0.029932,0.0111906,0.0365275,0.0160494,-0.0300736,0.00507782,0.0164461,-0.0920761
0.00699902,0.0258551,0.00257659,0.116712,0.0123207,0.0437292,0.00646511,-0.238313,0.141485,0.00360449,0.0794982,-0.149167,-0.000203622,0.0779712,0.026238,0.00254736,0.0733414,0.0854274,0.0249203,-0.155814
-0.323192,-0.0990076,-0.0891229,0.151019,-0.0396312,0.0774639,-0.0418453,-0.0869599,0.145558,-0.137637,0.386769,-0.270142,-0.107954,0.18068,-0.163395,-0.0557716,0.318328,0.153175,0.0245808,0.00924912
-0.661849,0.0492026,-0.131933,0.325373,-0.0452158,0.0143147,0.045026,-0.208408,0.237809,-0.30643,0.455303,-0.279027,-0.00421188,0.190187,-0.186408,-0.0417645,0.338241,0.178933,0.0109205,0.04668
-0.466221,0.278794,-0.00722334,0.459411,0.00283511,-0.0769837,0.142018,-0.0732861,0.34081,-0.240184,0.354633,-0.246295,0.151731,0.282726,0.104152,-0.0274575,-0.0192969,0.234163,0.0379042,0.00723635
-0.10518,0.469191,0.117154,0.363511,-0.0464268,0.140372,0.0243761,-0.0392893,0.318634,-0.0322406,0.177829,-0.309861,0.210245,0.280294,0.222346,-0.0629307,-0.118557,0.286618,0.087121,-0.0616856
0.293432,0.878072,0.0259868,0.192037,-0.17342,0.00956942,-0.0314756,-0.123169,0.204244,-0.0834572,-0.152726,-0.41814,0.386425,0.247813,0.324633,-0.123675,-0.328203,0.202115,0.138134,-0.168292
-0.510878,0.737442,-0.424394,0.149026,-0.306077,-0.352549,-0.481616,0.0755395,-0.113112,-0.175018,0.100051,-0.497885,0.268854,0.601081,0.446972,-0.194996,-0.0354892,0.10209,0.277599,0.471998
-0.730469,0.441371,-0.480101,0.200191,-0.262707,-0.432344,-0.576952,-0.00821595,-0.104515,-0.128776,0.223407,-0.412816,0.044953,0.316808,0.640557,-0.261373,0.24721,0.22328,0.239992,0.642548
-0.444338,0.565138,-0.48102,-0.175179,-0.310901,-0.581764,-0.323972,-0.143425,-0.49696,-0.193981,-0.228187,0.000153899,0.172091,0.164387,0.953739,-0.203164,-0.0734259,-0.0598806,0.260687,0.42776
0.177206,0.672469,0.354737,-0.0564152,0.397186,-0.193433,0.279057,-0.589023,-0.120362,0.183809,-0.679156,0.276621,0.320719,0.0263312,0.721088,0.540473,-0.680489,-0.17941,-0.451822,-0.103023
0.0517777,0.573534,-0.0135561,0.453271,0.292558,-0.296024,0.436314,-0.80091,0.0667192,-0.497148,-0.507405,0.235464,0.568134,-0.287516,0.651771,0.277117,-0.219228,-0.2319,-0.191598,-0.139248
0.165402,0.227119,0.191428,0.381659,0.0435034,0.0352881,0.598544,-0.706516,0.27323,-0.083185,-0.153255,0.345754,0.423457,-0.0862895,0.252483,0.00599788,0.227783,0.078949,-0.0793089,-0.330139
0.121235,0.14075,0.285013,-0.0729126,-0.248377,0.338217,0.227664,-0.512751,0.497009,0.177537,0.108923,-0.13105,0.0378087,0.529772,0.560623,-0.284954,0.284411,0.414648,0.253262,-0.204855
-0.208832,0.51186,0.29207,0.0639037,-0.380021,0.465058,0.00226181,-0.132768,0.538081,0.316656,0.0789688,-0.148597,0.180226,0.610971,0.446176,-0.28095,-0.152871,0.246713,0.286709,-0.127116
0.159649,0.900679,0.344978,0.0642926,-0.229157,0.13945,0.114473,-0.361185,0.240882,0.162658,-0.279269,-0.405396,0.340013,0.0726233,0.761329,-0.194781,-0.511942,0.0286995,0.263721,-0.16637
-0.127083,0.347549,0.18128,0.0507011,-0.0954087,0.149152,0.0200003,-0.08922,0.291878,0.124579,-0.0235735,-0.515094,0.173007,-0.148047,0.148134,-0.0964201,0.0138417,-0.0467147,0.140927,-0.088536
-0.742197,-0.0684396,-0.0793785,0.41396,-0.0297741,-0.0552307,-0.0423439,0.223424,0.0921192,0.024086,0.368603,-0.442648,-0.137817,-0.283273,-0.587585,-0.112661,0.51301,-0.0311344,0.130256,0.120085
-0.702756,0.130631,-0.192808,0.25862,0.00918567,0.0805229,-0.11583,0.00489864,0.117299,-0.235338,0.4952,-0.460046,-0.129427,-0.0296623,-0.24861,-0.110377,0.3415,0.0554395,0.0595323,0.194109
-0.367315,0.0667683,-0.0335268,-0.0308074,-0.04412,0.142176,0.0117513,-0.114286,0.19047,-0.152255,0.528706,-0.459985,-0.0772539,0.154672,-0.132567,-0.0832532,0.0748534,0.15185,0.00749564,-0.00635123
-0.0774135,-0.014092,-0.0394929,-0.0593868,-0.0192496,-0.00568433,0.0991959,-0.118028,0.0753387,-0.111333,0.336967,-0.122346,0.0292394,0.0657482,-0.0997987,-0.0382323,-0.0800667,0.123213,0.0313437,-0.149134
0.101941,0.00594123,-0.0120939,-0.108126,-0.0506778,-0.0158646,0.0318565,0.00491129,-0.086742,-0.0310275,-0.0105863,0.00864927,0.0127959,0.116931,-0.0540564,-0.0434439,-0.0966379,-0.0377952,-0.00999232,0.0293258
0.00956552,0.0336878,-0.0342929,-0.00893913,-0.0202038,0.00963377,-0.0200145,0.0233145,-0.0262187,-0.0347814,-0.0903783,0.0228498,0.00946444,-0.0231113,-0.0140374,0.0349181,-0.00594698,-0.0115591,-0.0273496,-0.00853948
0.0120579,0.0288089,0.00285268,-0.0275334,-0.0150689,0.0278105,0.0181194,0.0326683,-0.0149179,-0.031272,0.0188044,0.0173586,0.000383267,0.041294,0.0129423,-0.0354994,-0.00132464,0.0237953,-0.02206,-0.00206323
-0.0188458,0.00790891,0.0185175,-0.02497,0.0270282,0.0353374,-0.00206441,0.00191209,0.0103358,-0.0184614,0.00930128,-0.0268336,-0.0106148,-0.0188833,0.000996049,0.0271357,0.0263387,0.0301203,0.0190945,-0.0248134
0.0311213,0.0315956,-0.00110564,-0.01947,0.00323655,-0.0026405,-0.0169337,-0.0209409,0.0165081,0.0170997,-0.0155713,0.0295615,-0.0117545,0.0140494,0.0340703,0.0308454,0.0281266,0.0181051,-0.0264007,0.0332007
-0.030912,-0.0103886,0.031575,-0.00085402,0.0336142,0.00646996,-0.0319639,0.0343717,-0.0355403,0.00461082,0.00359567,0.0245539,-0.00667463,-0.0103118,-0.0292589,0.0103915,0.00193542,-0.00291588,0.0299936,0.028836
-0.00728036,0.00268108,-0.0109302,-0.0303257,-0.0286822,0.0159052,-0.0275082,-0.0234209,-0.0292362,-0.0303951,-0.0154379,0.0121452,0.00542593,-0.000832699,-0.000627054,0.0262639,0.0121148,0.0034229,0.0148859,-0.0263669
-0.0188504,0.0491761,-0.00119137,0.0770112,-0.0100947,-0.00795668,0.0104758,-0.135596,0.0577109,-0.0174702,0.0359856,-0.0917605,0.0405748,-0.0258833,0.0368081,-0.00780869,-0.028021,0.0512231,0.0158122,-0.0642187
-0.0312324,0.0879804,-0.0480939,0.0650685,-0.0200302,0.0141439,-0.00887391,-0.284847,0.0930494,-0.0235854,0.0752485,-0.200838,0.0162167,0.0557687,0.0475552,-0.000569058,0.0252392,0.0651726,0.0183592,-0.130482
-0.482875,-0.00567711,-0.162088,0.155935,-0.0432638,0.00424253,-0.0909976,-0.200292,0.179638,-0.267052,0.459379,-0.346735,-0.105288,0.261407,-0.0691995,-0.0261392,0.168765,0.221859,0.0731263,0.0257541
-0.762509,-0.11542,-0.409816,0.476201,-0.0383594,-0.124356,0.0110067,-0.289663,0.251956,-0.482438,0.549823,-0.388091,-0.0298444,0.117497,-0.263527,-0.0773679,0.484587,0.21483,0.0365956,0.0218661
-0.582177,-0.0650326,-0.314855,0.775882,0.0390208,-0.164574,0.0551653,-0.158778,0.23944,-0.363581,0.44743,-0.381246,-0.0275888,0.0818529,-0.322357,-0.0662518,0.481148,0.251391,0.0213891,-0.0124228
-0.596564,-0.0656259,-0.360347,0.806877,-0.0355375,-0.277059,-0.111901,-0.00838475,0.0862705,-0.220099,0.613409,-0.305924,0.0299893,0.0896149,-0.519407,-0.0528107,0.498718,0.286958,0.0569454,0.0651099
-0.551806,0.253658,-0.313843,0.584948,-0.152626,-0.309409,-0.012467,-0.0295763,0.0310346,-0.196245,0.240041,-0.338907,0.22481,-0.116839,-0.207841,-0.11891,0.165916,0.105981,0.131992,-0.201824
-0.353442,0.0721095,-0.377963,0.294832,-0.235614,-0.236394,-0.00905691,-0.0310821,0.0168507,-0.210487,-0.216069,-0.206555,0.478988,-0.22926,0.117487,-0.230653,0.129402,0.0364551,0.305758,-0.163141
-0.346206,-0.0929655,-0.517084,0.0877903,-0.32135,-0.384089,-0.237371,-0.078719,-0.0362114,-0.358306,-0.226247,0.0556276,0.377892,-0.00738239,0.353698,-0.279022,0.364501,0.13932,0.285495,0.116547
0.117047,-0.0177042,-0.0094881,0.00356721,0.0510355,-0.359576,-0.162776,0.0201089,-0.281899,0.0863408,-0.433519,0.270576,0.391308,-0.106379,0.447918,0.108244,-0.0700663,-0.126927,-0.141839,0.101191
0.300254,0.372887,0.372074,0.515604,0.669702,-0.433765,0.157107,-0.349036,-0.117588,0.0945129,-0.419062,0.495896,0.524693,-0.376883,0.477091,0.583409,-0.520318,-0.323517,-0.655456,-0.178314
0.0560723,0.265869,0.195898,0.700212,0.328932,-0.194352,0.25465,-0.527434,0.0290349,-0.0446275,-0.26151,0.527366,0.395118,-0.0621178,0.138246,0.308992,-0.233305,-0.360468,-0.316649,-0.199647
-0.0184895,-0.0831417,-0.300338,0.587488,-0.187357,-0.00665736,0.191322,-0.143152,0.315444,0.0102535,0.061099,0.405098,0.187036,-0.08808,-0.189788,-0.242761,0.3249,0.0781291,0.160846,-0.249313
0.115508,0.133431,0.193323,0.179415,-0.318858,0.242981,0.266319,-0.191861,0.341339,0.347406,-0.0182752,-0.0286877,0.205178,0.290517,0.347666,-0.330838,0.0389917,0.575474,0.309937,-0.304636
-0.0605425,0.529627,0.516432,0.244545,-0.223373,0.431014,0.317158,-0.203837,0.597802,0.533958,-0.184944,-0.217688,0.325173,0.378282,0.368815,-0.193808,-0.262194,0.413018,0.187676,-0.388244
0.0333771,0.334057,0.215816,0.116646,-0.204785,-0.0650236,-0.0289141,-0.18658,0.163831,0.163849,-0.195929,-0.0578692,0.292356,0.202202,0.352841,-0.156996,-0.166524,0.0417956,0.189789,-0.0702561
-0.647745,0.0213104,0.176949,0.298839,-0.119964,-0.059466,-0.310121,0.0707105,0.198701,0.139717,0.328816,-0.436632,-0.0931647,-0.0584572,-0.292883,-0.0918651,0.489699,0.0338817,0.208782,0.0943627
-0.738586,-0.00784469,-0.113728,0.213622,-0.0851501,-0.042012,-0.317767,0.0609793,0.116783,-0.133795,0.477611,-0.735406,-0.288001,0.0855831,-0.330462,-0.117524,0.386131,0.0615387,0.146008,0.333199
-0.512745,0.129539,-0.0112121,0.120764,-0.0332012,-0.0379474,-0.237236,-0.225851,0.133619,-0.179261,0.273956,-0.517435,-0.0926587,0.240723,-0.00973912,-0.0668942,0.265547,0.156587,0.108615,0.320589
-0.339387,0.159257,0.0321854,0.0727536,-0.0487442,-0.0128481,-0.103473,-0.193352,0.134429,-0.0564032,0.184323,-0.408957,-0.100604,0.126271,-0.0274515,-0.0335209,0.0352222,0.11131,0.0175528,-0.031038
-0.224605,-0.0205216,0.014872,0.00552789,-0.0577774,-0.0597598,-0.0288646,-0.120642,0.0335468,-0.037735,0.106563,-0.179816,-0.111099,0.0941798,-0.0654042,-0.0325964,0.0901882,0.0862209,0.0182663,-0.0777216
-0.102944,-0.0258952,0.0196996,-0.0351424,0.00211794,-0.0243694,-0.0675223,0.0318451,-0.183539,-0.0863536,-0.0954632,0.0227232,-0.0895744,0.0911551,-0.041293,0.0114046,0.00961677,-0.0266286,0.00760861,0.0634347
-0.00446453,0.000785624,-0.0326622,-0.00575581,0.0323586,-0.0498758,-0.112799,0.0358603,-0.197844,-0.0141205,-0.111622,0.0494985,-0.0528757,0.0991422,-0.0337941,0.0156222,0.0239199,-0.0867304,-0.00917816,0.0198793
0.00358126,0.0146141,-0.0234382,-0.0613775,-0.0333219,0.0162335,-0.116896,0.00753113,-0.129186,0.0212689,-0.0824721,0.0316077,-0.0300979,0.122947,0.0160203,0.0287736,-0.0184094,-0.0604847,0.0239577,0.042253
0.000823672,-0.0247376,-0.0143358,-0.00646502,0.0303138,0.0261682,0.0214593,-0.028973,0.0158815,0.0138935,-0.0100514,-0.0216734,-0.0315726,-0.0284803,0.0124191,-0.0308275,-0.013286,-0.0166117,-0.00486029,0.00901169
0.00454107,0.001978,-0.0252129,-0.0233231,-0.0203624,-0.0231561,-0.0222551,0.0193601,-0.021413,-0.015972,0.00275254,-0.0339637,-0.0344972,-0.00565932,-0.00784205,0.0135128,0.00109607,-0.0131668,0.00162929,-0.0326819
-0.0326796,0.0129433,0.00550324,0.0015865,-0.010095,0.00712865,0.0283427,-0.000225186,0.010395,0.00375555,0.0231184,-0.00599333,-0.000512354,-0.00324923,-0.00476176,0.0274663,0.0271196,-0.0344443,-0.0307762,-0.00577206
0.0176922,0.0188856,-0.0315326,0.00427931,0.0216277,0.0257913,-0.0163194,0.00865341,-0.009497,0.0311464,0.0349642,-0.0127927,-0.00647304,-0.0116493,-0.0222991,0.0320225,-0.0226615,-0.0222057,-0.0214801,0.0199125
0.0023582,0.0087835,-0.0135726,-0.0149805,0.0134619,0.00591545,-0.0189815,-0.0116976,0.0287428,-0.056667,0.0147738,0.0241568,-0.00710911,-0.0156479,0.00555542,0.00218653,-0.00595649,-0.0341885,0.0157307,-0.0237162
0.0188072,0.0315006,-0.103266,0.00197697,-0.0208208,-0.0394118,0.0675014,-0.207892,0.0020705,-0.127395,-0.0717625,-0.107894,0.0501408,0.0417222,0.127862,-0.0109968,-0.00306605,-0.00160098,0.045298,-0.0750304
-0.306793,-0.0409328,-0.227988,0.0951154,-0.00403032,-0.0590018,-0.0363093,-0.0737334,0.0107024,-0.185085,0.191359,-0.146493,-0.0253892,0.13366,0.00923745,-0.0187929,0.0954439,0.0632893,0.0615774,0.0272202
-0.481577,-0.298904,-0.292197,0.32674,-0.0480264,-0.114003,-0.0513678,0.0214302,0.131716,-0.0915382,0.550735,-0.0982233,-0.0553407,0.0693573,-0.496571,-0.0788824,0.269856,0.211932,0.0329085,-0.0122102
-0.357834,-0.309404,-0.228881,0.503957,0.000261301,0.0209611,-0.128574,-0.0912404,0.199057,0.0352974,0.621246,-0.267714,-0.059768,0.340638,-0.802784,-0.0826788,0.41008,0.411839,0.0507072,-0.0858219
-0.544943,-0.224673,-0.456039,0.424201,-0.127977,-0.109857,-0.203212,-0.0822971,0.0866214,-0.23208,0.608358,-0.4939,-0.0887952,0.198951,-0.59907,-0.108943,0.574132,0.232134,0.116316,-0.0130971
-0.601368,0.0813348,-0.53897,0.291203,-0.205034,-0.193192,0.0641951,-0.28137,0.0260883,-0.351617,0.0383881,-0.284654,0.147655,-0.364277,-0.178848,-0.185183,0.40224,-0.0181354,0.183485,-0.332219
-0.548954,-0.349976,-0.591088,0.175268,-0.305305,-0.0771051,-0.0326046,-0.00754283,0.228787,-0.307552,-0.0875693,-0.066714,0.219967,-0.273388,-0.228216,-0.390701,0.478058,0.134212,0.364096,-0.193713
-0.361772,-0.461231,-0.427813,0.360453,-0.120863,-0.102573,-0.038317,-0.240331,0.246076,-0.251074,-0.259588,0.254836,0.293538,-0.437643,-0.180842,-0.182981,0.473531,0.112937,0.12857,-0.248668
0.00736508,-0.246838,0.0912313,0.502959,0.252693,-0.188863,0.252053,-0.405873,0.118871,-0.134129,-0.433411,0.672441,0.459152,-0.645019,0.1385,0.217297,-0.085837,-0.154207,-0.206375,-0.483275
0.320751,0.117267,0.543122,0.449501,0.641923,-0.015793,0.382621,-0.738531,0.252555,0.386944,-0.432727,0.549357,0.387663,-0.445118,-0.00364837,0.662794,-0.53036,-0.187932,-0.707511,-0.386006
0.0872837,0.128846,-0.0186038,0.516212,0.145027,-0.000869639,0.274226,-0.665874,0.129338,-0.0332884,-0.1775,0.262387,0.0136865,-0.0366238,-0.0483921,0.0526032,-0.315141,-0.116972,-0.196449,-0.377505
0.0235572,-0.123925,-0.526957,0.418479,-0.342604,0.0571321,0.178401,-0.161203,0.267623,-0.230757,0.180818,-0.109466,-0.0480425,0.00938681,-0.137824,-0.384402,0.418344,0.175861,0.262998,-0.460685
0.0346538,0.257629,-0.185925,0.323654,-0.34014,-0.146314,0.206645,-0.33018,0.29633,0.148579,0.00725982,-0.0402132,0.110573,0.0546765,0.111397,-0.318813,0.0953246,0.638532,0.290269,-0.604832
0.084581,0.155454,0.335854,-0.116431,-0.244379,-0.0976845,-0.0960073,0.0943343,0.161968,0.747922,-0.243324,0.465282,0.130726,0.354772,-0.0309758,-0.214293,-0.302263,0.409643,0.231949,-0.311104
-0.370684,-0.114275,-0.231755,-0.153572,-0.256663,-0.143921,-0.452978,0.02597,0.146631,0.114208,0.153513,0.449238,-0.0743585,0.34738,-0.215041,-0.17339,0.33588,-0.0254183,0.213176,0.0878906
-0.58211,-0.353839,-0.0337746,0.0885187,-0.119416,-0.0885093,-0.465128,0.200076,0.159868,0.182133,0.258075,-0.317233,-0.328134,0.0521597,-0.471043,-0.0931089,0.755338,0.0900081,0.175384,0.19474
-0.266337,-0.17202,-0.0918924,-0.198132,-0.129877,-0.28115,-0.345234,0.18913,-0.158965,-0.0800736,0.0571896,-0.380845,-0.105012,0.180073,-0.141808,-0.0638942,0.185865,-0.111107,0.112484,0.455667
-0.347843,-0.196152,-0.109041,-0.0417764,-0.0724684,-0.347794,-0.382997,-0.131098,-0.161501,-0.0948724,0.00967944,-0.264172,-0.013067,0.164389,0.000692843,-0.0573369,0.0795035,-0.0412117,0.0443945,0.458272
-0.242381,0.0829565,-0.106076,0.0184627,-0.0464442,-0.258322,-0.105722,-0.255511,-0.145617,-0.0837944,-0.0127157,-0.168291,-0.0217731,-0.103155,0.0822152,-0.0333871,0.0286013,-0.0742229,0.0199467,0.0402308
-0.200405,0.0146094,-0.188356,0.0516745,-0.03485,-0.232781,-0.075349,-0.0284446,-0.276501,-0.0543017,-0.0415193,0.0932573,-0.0655621,-0.0803602,-0.0264923,-0.0114953,0.0121475,-0.104054,-0.0123789,-0.0982118
-0.14426,-0.0834881,-0.131408,-0.0444984,-0.0044287,-0.196692,-0.122233,0.0940791,-0.271861,-0.0625378,-0.0651192,0.0884684,-0.0443017,0.0064424,-0.100696,-0.0266013,0.0859644,-0.142777,-0.0201534,0.0656374
0.00105611,-0.0183148,-0.0290225,-0.0862453,-0.0305294,-0.0134844,-0.0957727,0.0321751,-0.143775,0.0397843,-0.0260806,0.00259298,-0.0448965,0.115604,-0.0188924,-0.0204862,-0.0186744,-0.0690467,0.00725916,0.0401108
-0.0231624,0.0249595,-0.0141043,-0.0334428,0.0041033,-0.0274045,-0.029868,0.00460008,-0.0397315,-0.0126273,-0.0170351,0.0294202,-0.0210445,0.0562064,0.000489086,-0.0186206,0.0279372,-0.044104,-0.0127097,0.0343987
-0.028382,-0.0261584,-0.01605,-0.00220967,-0.00632625,-0.0229462,-0.0307307,0.00252023,-0.024308,0.0197642,-0.024069,0.0162059,0.0281323,0.012058,0.0065701,-0.0240434,-0.0135326,-0.0320857,-0.00674989,-0.0313845
-0.00162382,-0.0333097,-0.0279097,0.02933,-0.0259708,0.0072397,0.00565285,0.00937786,0.00129802,-0.032112,-0.0162915,-0.000654746,-0.0285445,0.035264,0.00216207,0.0306986,-0.016671,0.00536894,0.0313924,-0.00147117
-0.00152676,0.0114631,-0.0153498,0.0184738,0.010197,0.0238838,0.019521,-0.0306278,-0.0344606,0.0139778,0.0093413,-0.00402815,0.00557689,0.0277772,-0.0159003,-0.0275588,-0.0105088,-0.0142262,-0.0202949,0.025764
0.00815595,-0.0151817,0.00532848,0.0270396,-0.0117267,-0.0324923,0.0264428,0.00926154,0.0272878,-0.00205654,0.0015939,0.0302468,0.0322741,0.019292,-0.0167251,-0.0191566,0.00889568,-0.0129831,0.0241041,0.0133415
-0.0322634,-0.0113744,4.12983e-05,-0.0410161,-0.0167788,0.0184511,-0.0202563,0.0126008,0.0145512,0.0217867,0.0192386,0.0023903,-0.0269486,0.00620039,0.0216559,0.00288426,0.029226,0.0276875,0.0049823,0.037997
0.0596158,0.0879529,0.0446236,-0.030595,-0.0555698,-0.0464258,0.014648,0.0360964,-0.126087,0.19629,-0.119853,0.0571184,-0.00479859,-0.000687477,0.124972,0.0153367,-0.161656,-0.0945858,0.00804156,0.0444955
-0.178744,-0.137557,-0.117863,-0.0382351,-0.064632,-0.0698631,-0.134255,0.195408,-0.241106,0.142534,0.0423592,0.0176197,-0.0297299,0.00053607,-0.049806,-0.075035,-0.0877512,-0.125805,0.0105746,0.219928
-0.101303,-0.33946,-0.312585,0.046769,-0.049087,-0.0610166,-0.135529,0.18367,-0.0527219,-0.0391995,0.269515,0.0236358,-0.12353,0.0904555,-0.363886,-0.099877,0.2286,0.106657,0.0268392,0.0890263
0.0510245,-0.21614,-0.214853,-0.0531773,-0.113731,0.0243255,-0.132491,-0.151412,0.0418122,0.0520542,0.414396,-0.149298,-0.0516836,0.354292,-0.628997,-0.115233,0.344157,0.300482,0.0520621,-0.0041593
-0.282978,-0.345517,-0.419406,-0.187162,-0.282949,0.0126499,-0.139148,-0.0787774,-0.00419954,-0.18586,0.494951,-0.116827,-0.150693,0.149531,-0.625714,-0.16155,0.469216,0.138582,0.190305,-0.0630428
-0.666773,-0.251799,-0.482868,0.153471,-0.316385,0.0217114,-0.0295434,-0.130737,0.108765,-0.500727,0.0993541,-0.0737623,0.0508834,-0.211603,-0.512277,-0.298838,0.487807,0.124008,0.273508,-0.100539
-0.481156,-0.193892,-0.557753,0.194914,-0.122989,-0.0513403,0.336333,-0.248631,0.150035,-0.6327,-0.304812,0.125103,0.290394,-0.481613,-0.475204,-0.230183,0.276813,0.0200106,0.262614,-0.349881
-0.0567563,-0.0927199,-0.463694,0.129803,-0.0682588,-0.0388851,0.266511,-0.398489,0.166759,-0.782034,-0.477066,0.291992,0.334867,-0.245404,0.067935,-0.152298,-0.276979,0.0180613,0.19807,-0.435158
0.0376364,-0.0544734,-0.189042,0.260746,0.521726,-0.166389,0.464842,-0.368127,0.313865,-0.388965,-0.503983,0.298098,0.255391,-0.432096,-0.0418276,0.402516,-0.4746,0.0222309,-0.419936,-0.665501
0.335275,-0.149455,0.0422485,0.277128,0.526834,0.147443,0.30004,-0.365768,0.438162,0.0934017,-0.253447,0.442078,-0.0430416,-0.250884,-0.274271,0.501865,-0.354879,0.103779,-0.659084,-0.620216
0.409449,0.0751987,-0.0670833,0.0786035,0.0473839,0.365939,0.290375,-0.502821,0.244761,0.145814,-0.35835,0.33123,-0.0850202,-0.021511,-0.211627,0.0638062,-0.059703,-0.111347,-0.143505,-0.63626
